{"0": {"net": {"sizes": [3, 2, 2, 2], "weights": [[[-0.3645352445138268, 1.4081962069998049, 0.8875228401566106], [-0.3057759259876451, 1.3805760780741096, 1.1581400778402111]], [[0.8375695293549453, -1.507537252287999], [0.5291271007365551, -0.4337162824747657]], [[-0.5309628936463954, 1.470043112972117], [-0.3421432624740439, -0.5623781736208595]]], "biases": [[[0.4703768877376201], [0.3555669694520137]], [[0.7893662736164818], [0.6379961564425881]], [[0.8864322296156374], [-1.2833375922977022]]]}, "op": [[0.8244322283708352], [0.1339782310903183]]}, "1": {"net": {"sizes": [3, 2, 2, 2], "weights": [[[-1.4685624406409108, -0.3341094467636182, -1.1024990923654683], [-1.1898366042089994, 1.323422728283242, 0.7575249928630341]], [[-1.0725227678222673, 0.5514378461484444], [-1.6321127788971077, 1.760566573044787]], [[0.4607558432917277, 1.9358989672551281], [-0.7808308803816607, 1.2061277760323552]]], "biases": [[[-2.7531705656386274], [1.7515375241700912]], [[0.6201245241398408], [0.338756284297753]], [[0.7952466008848439], [1.8521630767638233]]]}, "op": [[0.9414461720950053], [0.9086067551111021]]}, "2": {"net": {"sizes": [3, 2, 2, 2], "weights": [[[-1.3152374680477084, -0.39285886063694353, 0.41588603626257686], [-0.4319611629694742, 0.7008022619959546, 1.0090351498938601]], [[0.03944680174898063, -0.6936531389573717], [0.3173902987835954, 1.813987088732421]], [[1.6532449535213807, 0.9264060768606177], [-1.1689561692408958, -0.6274049351992467]]], "biases": [[[0.3847749599545959], [-0.20749399641781188]], [[1.2217558960562407], [0.6014033050731905]], [[0.22199918097988214], [-1.6154221360008807]]]}, "op": [[0.897144980527882], [0.048967226506879125]]}, "3": {"net": {"sizes": [3, 2, 2, 2], "weights": [[[1.7408227275378858, 0.39738309320791876, 0.4772999593050452], [-0.6775371633356445, 1.5756712629860592, -2.1940644359424737]], [[1.1100376690821594, -0.461472342933066], [0.22645885700497137, 0.09547624873922617]], [[-0.4486724616959542, 1.2784690112694819], [0.11258025559368523, -0.11244737921348996]]], "biases": [[[1.2699607862006395], [1.811744008557602]], [[1.2792448721862484], [0.30325720750014135]], [[1.53782358935459], [-1.9795008748751914]]]}, "op": [[0.8768547662366692], [0.12430359534669073]]}, "4": {"net": {"sizes": [5, 3, 4, 3], "weights": [[[-1.5751717369245168, 2.7012488907186962, -1.5570595807822736, 1.2080232068286483, -0.4375509182379197], [0.5855529324783816, -1.0479651698963326, 0.06845781177893809, -1.015063860635814, -0.25577602828777907], [-1.1953242919560338, 1.313792293954978, 1.3019488460405169, -0.9380797457584135, 0.19393298633822023]], [[1.3154871163844215, -0.5329510673542948, 0.18513659703554844], [-1.8731040639749141, 0.928320844688109, -0.1279607633938022], [0.30312065359158624, 0.47134615046252115, 1.3895320858563558], [0.9249076066163279, -1.5194854454730042, -0.7288335055438195]], [[-0.44007616425167134, -1.3668118213678635, -0.5514006209748075, 0.14801267435973908], [-1.234570935596916, 0.9400114265972689, 0.6881670386476277, 0.23283475575856835], [0.12660784285851465, -1.1621085435596812, 0.2948804304222514, -0.5611415311044586]]], "biases": [[[-1.5854728051075804], [0.5326062988441028], [0.21323711305309528]], [[0.20375697623098987], [0.7172990050877337], [0.4618676251844237], [1.5589466797785039]], [[0.6232394049431804], [-0.2148289133788556], [-0.7162697252630377]]]}, "op": []}}