{"0": {"net": {"sizes": [2, 2, 2, 2], "weights": [[[-0.1784197422920661, -0.23423609479167792], [0.2051453607234043, 2.0708967678208046]], [[-0.20908513558909284, -0.3643659816055352], [0.8419963580242849, -0.4100203944564652]], [[1.432710895706816, 1.2419301223555856], [0.5981134304005827, -0.38263350268223717]]], "biases": [[[-1.3247581672857134], [1.2154631916200735]], [[-0.8862014163400591], [0.6172543226947715]], [[1.0621659337844438], [-1.8103364310163823]]]}, "op": [[0.8937923997299143], [0.1294372117400155]]}, "1": {"net": {"sizes": [2, 2, 2, 2], "weights": [[[0.4264276151412008, 0.6429537375189623], [-0.4530497173505912, -0.7301646315106608]], [[0.12210605802705235, -0.34397531338982745], [-1.2694877439284806, 0.5197834693893165]], [[0.11172953699050796, -0.8191978460885284], [-1.3672903499975475, 0.8894578547536622]]], "biases": [[[-0.02229408720886579], [0.30329200878644913]], [[0.6194649083617265], [-0.9459530645480796]], [[1.948955702236986], [-1.2080199269571383]]]}, "op": [[0.8691982024322746], [0.12431746567685176]]}, "2": {"net": {"sizes": [2, 2, 2, 2], "weights": [[[-0.9197641655117842, -0.18976508481774812], [-0.7423849159022669, -1.0353681955223064]], [[1.3694198308050392, -0.36111127040919644], [0.47333718295066024, 0.2822937288447218]], [[-0.1891360178540843, -0.3878154702701677], [-0.9641518737669657, 1.2593086025840685]]], "biases": [[[1.2350668192097927], [-0.6568295085871853]], [[0.07035296316749945], [-0.8878065266384503]], [[2.170421216661331], [-1.737611912070644]]]}, "op": [[0.8684233069414103], [0.12432333204824761]]}, "3": {"net": {"sizes": [2, 2, 2, 2], "weights": [[[0.3312346718640292, 0.320117486321925], [-0.9218795744369537, -0.030863490862475428]], [[-0.5670746154958166, -1.224043872882972], [1.182248502348899, 1.2605755109536856]], [[-0.8442768253757741, 1.588322972888937], [-0.30809580513819707, -0.32698821382301374]]], "biases": [[[0.0711700120329156], [2.3164819358190507]], [[-0.43002289605879573], [1.2766545788517822]], [[0.4027884882897808], [-1.3628824551586558]]]}, "op": [[0.8588142436723092], [0.15210660434944534]]}, "4": {"net": {"sizes": [5, 4, 3, 2], "weights": [[[-0.36076284339929654, 0.032895546842512474, 1.0233475452274046, 0.4418859342524162, -1.3694829082957922], [-1.6345220832217913, 1.4403656383771608, 0.34445082100174945, -0.33811189095597555, -1.3243862281188288], [2.8714983693347116, -0.973551231062298, -2.1115551845716, 0.006422192782437689, -2.3239508801474633], [-0.03737400402873325, -0.28010093869971925, 2.5475969294057523, 0.5138019931770471, -1.1627824986193653]], [[-1.1789008545813837, 0.663033692717769, -0.5368767684511732, -1.1484686114900098], [-0.8181353829492785, 1.852104809607175, -1.5390224007014728, 1.073089474693539], [1.3826917824472682, 0.24254679404926333, -0.4401912615156785, -0.7264970066496771]], [[0.28433123698440427, 1.0856395147496973, 0.3854811199034127], [-0.2552668080949482, -0.4952626337333925, -0.46184276315262274]]], "biases": [[[-2.8876064777888666], [0.7190207402713106], [-0.9464005289016466], [0.8929008883208531]], [[0.7993714735258977], [-0.8842813635536614], [-0.19607311169471414]], [[-1.0949212647584732], [-0.4094289478357926]]]}, "op": []}}