{"0": {"net": {"sizes": [2, 2, 2, 2], "weights": [[[-0.28596800791262056, 0.014316142210607435], [-1.1238855455206427, -0.23052982946212014]], [[-0.0931821525048328, -0.8477354840254607], [0.14144881942171295, 0.785045783377487]], [[-0.07907633678189302, 0.5920094766427383], [0.42506802802139704, -0.18816544950147346]]], "biases": [[[0.4343729550998414], [0.7607250937958155]], [[0.17445650447022004], [1.687771249851656]], [[1.3570844217023812], [-2.0076868904878107]]]}, "op": [[0.8645206203681922], [0.11982195289789166]]}, "1": {"net": {"sizes": [2, 2, 2, 2], "weights": [[[1.6727573746993643, -1.8062002818925476], [-0.40495905119783043, 1.4965440994802537]], [[1.7807790190069241, 0.7574668884181784], [-0.36602013775256076, -2.0019585782927742]], [[0.9698457799342797, -0.5974936865234808], [-0.970457305400762, 0.637529885959184]]], "biases": [[[1.270174329656318], [0.22478567722807427]], [[0.45520899876553933], [-0.42816669783242683]], [[0.9102987224905216], [-1.1119943879353933]]]}, "op": [[0.846962435902712], [0.12912660643646112]]}, "2": {"net": {"sizes": [2, 2, 2, 2], "weights": [[[0.18479549667512413, 0.20307359555506435], [-0.521374546710639, 1.8581917706461344]], [[0.34599869211211104, -0.8919462720725], [-0.6582602342459081, -0.7366598363191051]], [[0.7969832008553311, -1.1734370024781724], [-0.2124183751696541, -0.28500662940850346]]], "biases": [[[0.8956006000510389], [0.5242559840008986]], [[1.2411295148086083], [0.18870769015858357]], [[1.5237030591881138], [-1.4129082321153525]]]}, "op": [[0.8486333181450855], [0.16144639523719628]]}, "3": {"net": {"sizes": [4, 2, 3, 2], "weights": [[[-1.8160290699933204, -0.47550810774068913, -1.4435161395187468, -0.1333482407652414], [1.5560362034338506, 0.3009660117120522, 0.03618384704278974, -1.3637169395838549]], [[1.2572878659345708, 0.05162237070186925], [1.0262876849807383, 1.6359782815803654], [0.13805157060264706, 0.884050552389903]], [[0.38844854079114366, -1.4104358231114817, 0.9393227859984208], [0.46784911345157404, -0.21386460892744943, -0.3738875422580706]]], "biases": [[[-0.6317979302415676], [-0.192445395035998]], [[0.14431170453212414], [1.5551069180549835], [0.1887644829696135]], [[0.5807787003343186], [1.0428878058854052]]]}, "op": []}}