{"0": {"net": {"sizes": [2, 2, 2, 2], "weights": [[[1.2583890466429035, 0.22355838828343513], [-0.48164526566333304, 0.3042172936833389]], [[0.47350646967773574, 0.4856173199218748], [0.7290734799882785, -1.179431154643882]], [[0.5845300647758541, -0.0730748803313413], [-1.007763012484085, -0.8685125299496984]]], "biases": [[[-1.2649982458359244], [0.4062307629787718]], [[1.1045359215375823], [1.1199958652119022]], [[1.490804524864943], [-0.6247169388425501]]]}, "op": [[0.8724408920178669], [0.11474299765681821]]}, "1": {"net": {"sizes": [2, 2, 2, 2], "weights": [[[0.6049084250159796, -0.28892494280118786], [-0.872664766989657, -0.6398485224325345]], [[-0.3004016459868677, -1.4773686657296148], [1.3970559266508744, 0.6137012143069607]], [[0.34319200086212637, 0.8380716977336506], [-0.30074270503391193, 0.622009525977789]]], "biases": [[[-0.5568501767224998], [-0.8572227232248417]], [[-0.6477865558815125], [0.2323874663523001]], [[1.0811391204600078], [-2.2456546784041898]]]}, "op": [[0.8526653799650907], [0.1322790067667779]]}, "2": {"net": {"sizes": [2, 2, 2, 2], "weights": [[[-1.528299390176932, 1.0234104578821561], [0.639472087480967, -1.4769893926987754]], [[0.06329038801462111, 0.9011263136635891], [0.9273699829851142, -0.43378615708032214]], [[-0.9748356257880885, 0.21860564705361601], [-1.6022997775860122, -1.0997002542970238]]], "biases": [[[-0.22629694371301745], [-1.8577318151320503]], [[-0.5243106540530189], [0.7070413003632577]], [[2.074560212718129], [-0.1399995515975757]]]}, "op": [[0.8631376781479343], [0.17285172205224367]]}, "3": {"net": {"sizes": [4, 3, 3, 2], "weights": [[[0.47915833612544645, -1.2743226908807788, 1.0264776249769791, -0.1014318374812656], [0.2921915502212934, 0.669958448429416, 0.7941374369005252, -0.9615479050155662], [0.5367040811906661, 0.45001058533956917, 0.8902783361028942, -0.2182054693569336]], [[0.8741973544853777, 0.10448595178752398, 0.018627917563491074], [-0.18852454811468713, -0.9904869943492274, 0.9028526998329441], [-0.3409798801221253, -1.0219989654431636, 0.6544089633469898]], [[-0.42252197903287697, -0.8638521957596969, -1.2731692750214247], [2.6171235846621204, -2.877727424939126, 0.1978164171159717]]], "biases": [[[1.133177912956853], [0.2291070257484996], [-1.8496644484738227]], [[-0.7456104940676682], [0.6622247396978739], [0.4567172551743176]], [[2.180317121943554], [-0.1953264113068452]]]}, "op": []}}