{"0": {"net": {"sizes": [2, 2, 2, 2], "weights": [[[-0.08515405806248047, -0.49549131317163936], [0.05771421460461429, -1.6862908076105148]], [[0.6169532825798519, 0.9299441244478281], [-0.4317671088904869, 1.0368893818745644]], [[-2.255138566284172, 1.3122764871180908], [-1.1057842692307385, 0.08535345605188457]]], "biases": [[[1.8864187255102105], [0.424644775539831]], [[-0.7514165942720652], [-0.3585694960900862]], [[2.7478993942203744], [-1.1563389571464295]]]}, "op": [[0.8902453729795541], [0.15188044209080762]]}, "1": {"net": {"sizes": [2, 2, 2, 2], "weights": [[[-0.33144183331038246, -1.3269919851432501], [1.6741067877877827, -0.027141633801586795]], [[0.8129483317110932, 1.8049693443999772], [-0.050270654484200664, 1.8061675578542733]], [[0.9270041088891307, 0.7495289483109693], [-0.1246854260549351, 0.0772174611039069]]], "biases": [[[-0.9957459227976186], [1.220049956585654]], [[-0.39463525738389094], [-1.1019199356345626]], [[1.5805399972265362], [-1.7980516096062757]]]}, "op": [[0.9420358374312177], [0.1361295147979605]]}, "2": {"net": {"sizes": [2, 2, 2, 2], "weights": [[[0.5431884737307211, 0.4960078260975888], [0.8831605168528136, -0.23084775702591878]], [[-1.1271840254110408, -1.8234380452985706], [0.2656556395154114, -0.47295451680803946]], [[0.3515817446630871, 1.0132904278989094], [0.012249094324578887, -0.39719604303088274]]], "biases": [[[0.5357067258838335], [0.8367349855394739]], [[1.7296011785419065], [0.38758333798986744]], [[0.978552616566701], [-0.9634580924160081]]]}, "op": [[0.8429244128865215], [0.23499312847330428]]}, "3": {"net": {"sizes": [4, 2, 3, 2], "weights": [[[-0.7713838271429849, -0.3014637901269899, -1.8578981906961327, -1.6175000844487226], [1.2446025106773575, 0.21305830839515882, 1.0261409634913086, 0.46506754511925885]], [[1.5665968177474117, -0.4322232433631095], [-0.26545558205841446, 0.8477718387589539], [-0.6725226817779811, -0.20917501692618398]], [[-0.8147420735323979, -0.6890125418821663, -0.5900355268502046], [0.9613075347555313, -1.141136034490643, -0.41320028513234514]]], "biases": [[[-0.9613708381579765], [1.0369959882379771]], [[-0.25948449438524496], [0.2034671265160363], [1.4244347767270662]], [[-0.34777203584665434], [-1.7760119136825585]]]}, "op": []}}