{"0": {"net": {"sizes": [3, 2, 2, 2], "weights": [[[2.0163190173884065, -0.04183896165424616, -1.3920517767452758], [0.2111397038540658, -1.4159511091677828, -1.092525127571461]], [[-0.11701738981500329, 2.1052374740325837], [0.5721567825250825, 0.4315417875231908]], [[-0.3856618063244529, 0.020464831060509833], [-0.1204847570412811, -0.1301268980912955]]], "biases": [[[0.6241287662843947], [-1.2357283130036258]], [[-1.2733159799097018], [-0.4200598634087775]], [[1.908450494904602], [-1.4723699436962747]]]}, "op": [[0.8602810287359275], [0.1724227769597179]]}, "1": {"net": {"sizes": [3, 2, 2, 2], "weights": [[[-0.7894880680658133, 1.5482521145501298, -1.5646743209271172], [0.3785069932066354, -0.5935934929337884, 0.07842666564144185]], [[0.6073185970698758, -0.5808816683849091], [1.9415267118416304, 1.1193248550380577]], [[1.3798060781790649, 0.14574564147044397], [-2.1221996181906144, -0.580500846388647]]], "biases": [[[0.7283691227237038], [-2.5564118282379296]], [[1.4215126056614522], [-0.6735335228486101]], [[0.6233974021718297], [0.21061851932271874]]]}, "op": [[0.8711712236785019], [0.11777227146391438]]}, "2": {"net": {"sizes": [3, 2, 2, 2], "weights": [[[-0.98345381088605, -1.0848923296050983, -0.5619787583957842], [0.8061618394928225, -0.13535198644770416, -0.07887949255098789]], [[1.1137514764766034, -0.5345088966203146], [0.2948717479869913, 0.7798544700829148]], [[-0.14202705694451795, -0.7198205486813161], [-0.15027729645247379, -2.9001612024493086]]], "biases": [[[1.0494101045841286], [-0.38193045296888267]], [[-1.6498039620419394], [-1.6674381062626746]], [[1.5792813415380342], [-1.7815245589642952]]]}, "op": [[0.7983208182741204], [0.07579776444402594]]}, "3": {"net": {"sizes": [3, 2, 2, 2], "weights": [[[-0.6401183660313701, -0.46972463342955645, -1.1619267003405598], [-0.19255236805611733, 2.389377421848941, -0.09519642301373114]], [[0.02631100513940676, -0.4282496606561805], [-0.37092699813533525, -1.0429982239947015]], [[1.6450373277081483, -0.5822654736897034], [-0.7732790705861736, -0.7024622204462312]]], "biases": [[[0.7565871377653527], [-0.9308749957639418]], [[0.7800476780965466], [0.16754629767545043]], [[1.3987778495860779], [-0.7687725084094392]]]}, "op": [[0.903618777828746], [0.17075400684449718]]}, "4": {"net": {"sizes": [5, 3, 3, 3], "weights": [[[-0.42271173576301674, -1.118809034763093, 0.900778559696215, -0.642053110430012, -0.2958456515461713], [-1.6559610216705325, 1.5877401047866018, -1.9873749500667979, -1.5800582060956645, -0.6553141899179107], [-1.3670280108743615, 0.6951163183391126, 2.294783604076495, 0.4171493056271389, -0.9073220871159645]], [[0.1346288001033125, -0.9947769206517181, -0.4804592819292863], [-1.217020038869229, 0.8169227226661112, 0.36121375331957434], [0.6891006906614013, 2.08678438427514, 1.2905594907297644]], [[-1.2971608334573017, 0.1434054934249149, 1.266228664719875], [-1.4971541664733983, -0.11715473315911268, -0.6258015729995761], [-1.1149777234344032, 0.6906924210451133, -3.0282268214274426]]], "biases": [[[0.29016616042845544], [0.3014341435167555], [0.37126935240066256]], [[-0.3818402466577114], [0.3791106887943745], [0.2014066541932245]], [[-0.7462434810657286], [0.8871744437364559], [0.7782600252208793]]]}, "op": []}}