{"0": {"net": {"sizes": [5, 2, 2, 2], "weights": [[[-0.3842092004617846, -0.657982882376487, -0.6856401693761763, 0.7615533358034686, -0.6431420061038301], [0.23349258289593014, 0.25374617407510125, -0.4781159942683017, -1.2491895724872124, 0.19192858487325234]], [[0.44353316508023827, -0.3569811871415059], [-1.4845348775076868, 0.1616515658645026]], [[1.5586987263634131, -0.7887267617934275], [0.9045204489805152, -2.312725511000062]]], "biases": [[[0.07264973811250128], [0.2886880872555956]], [[0.17432519573384972], [0.6403736013506074]], [[1.34230683714105], [-0.9452416470790151]]]}, "op": [[0.8506943923493091], [0.14499729379146384]]}, "1": {"net": {"sizes": [5, 2, 2, 2], "weights": [[[0.8398926003696745, 0.39959199665607453, 0.6804656205443467, -0.39061454561289355, -0.4320146481903014], [1.0201205819452677, 0.8215873053594148, 1.43862663042414, -0.3345606882656462, 0.19540505944695064]], [[-0.3624822724559246, -2.1356618291611866], [2.504406997552724, 0.9897800777578709]], [[0.34876483729759833, 0.8014033695280975], [0.942161054892119, 0.1498478185637619]]], "biases": [[[-0.08299566064151397], [0.2723241260672658]], [[1.466308249027633], [0.03536037387435964]], [[1.2292518823791825], [-2.2878992579726734]]]}, "op": [[0.8907788047184543], [0.1490343645306291]]}, "2": {"net": {"sizes": [5, 2, 2, 2], "weights": [[[0.46276211813629287, 0.5718199697573296, 0.4235236523209986, -0.5686477185532793, 0.5245054788940974], [0.18267359398942226, -0.9035317762969529, 1.5243423400544878, -0.5974549425234693, 0.12398776643519889]], [[-0.8214908818949417, 0.019443351161609976], [0.40764839542150905, 0.47196047735934116]], [[-0.502687526195794, -0.6780803257184723], [-0.45377085579303883, 0.528441903476838]]], "biases": [[[-0.08735697748398397], [0.17285172810583896]], [[-0.5476876234419975], [-1.9348346178787963]], [[1.836949002727596], [-1.9828219425178344]]]}, "op": [[0.8269231495702009], [0.12109012231101707]]}, "3": {"net": {"sizes": [5, 2, 2, 2], "weights": [[[0.022419875574815878, -0.2548236394353784, -2.3185482815134413, -1.082748576001687, 0.2110336702114871], [-1.2072101394292918, 0.9383118154910974, 0.2866921122750786, 0.15180981267555835, -1.5346626687496567]], [[0.9416854407212305, 0.48674682666573726], [1.7253933825834422, 2.0261720177517932]], [[-0.18119924964021486, -0.08121971731602205], [-0.8808577360435002, 0.19312466433756342]]], "biases": [[[-0.0466448913691137], [0.208170744809477]], [[1.0023667235971907], [1.8104574509393032]], [[2.8979691711044184], [-1.71363665234604]]]}, "op": [[0.9354066803794525], [0.09619273801291152]]}, "4": {"net": {"sizes": [5, 4, 2, 5], "weights": [[[-0.9718976741298516, -0.3460888842453313, -0.6460642934959576, -0.013911946341265698, 0.11808723005572079], [-0.4073442973183091, -0.2114673105351106, -0.11940149944700082, 0.3482484990755877, 0.7739944462054549], [1.4332631810987104, -0.8796053214875539, 0.2857496770911421, -1.127756705899092, -1.3433189768779226], [-0.18649183244836898, 0.17617771451039774, 0.8415254971905062, -1.6862370861266887, -0.16391869862745304]], [[1.257808318762246, 0.4550098753735868, -0.08569330149745405, 0.20547853245125827], [1.1408300510270997, 0.01553571419296596, -0.37267084878153117, -0.6052813719574618]], [[-0.8060749565844216, 2.0405626330730744], [-0.2908995020215619, 1.4650933653203064], [-0.08210521710817995, -1.2387757342924017], [-3.1601060579312197, 0.08009668851442099], [1.9631695914404423, 0.2838312120667894]]], "biases": [[[0.9352593926355856], [-0.9707005191004032], [0.4104111100392921], [-0.7238218312189081]], [[-1.8701427417758625], [-1.1691009728873258]], [[-0.34263317923709913], [0.11443442557087369], [-1.2147726116634618], [-2.8520177251624292], [0.5826031410213116]]]}, "op": []}}