{"0": {"net": {"sizes": [2, 2, 2, 2], "weights": [[[-0.34689509056690704, -1.9466480712593233], [0.40391394380670026, -0.5655023375424515]], [[0.2888947011923807, -0.8684847549225568], [1.6480212575301645, -0.1082810337441151]], [[0.7042247940126398, 1.3041265603398435], [-2.6902307711993156, 0.22055485980891007]]], "biases": [[[-0.020836095778299323], [-1.1415655110977851]], [[0.7527315508178652], [0.30585285990019195]], [[0.8430870010276801], [-0.32377454348171864]]]}, "op": [[0.8919192814315838], [0.12726321646928915]]}, "1": {"net": {"sizes": [2, 2, 2, 2], "weights": [[[-0.3558803788485357, 1.123076498261063], [0.6875227165440734, -0.9133991332152689]], [[-0.7833242563905928, -0.17663865195071243], [1.4275199585167568, 0.28139640988246556]], [[-0.49272535824236663, 1.6853447947541145], [-0.08882837475260988, -0.4156700423598934]]], "biases": [[[0.6065025140711438], [-1.6904124923657575]], [[-1.1811182066077517], [1.2574607001380251]], [[-0.3012530472703291], [-1.531160618323682]]]}, "op": [[0.762540073624922], [0.1274764326240834]]}, "2": {"net": {"sizes": [2, 2, 2, 2], "weights": [[[-0.007062736378365947, -1.7878155298847285], [0.19429597399531076, 0.6161226007746833]], [[-0.17751879691124878, -0.2535252812376073], [0.9766958597954178, 0.6856076369072661]], [[1.4165154231788928, 1.3124798608528963], [0.09830344936822834, -1.221161986749534]]], "biases": [[[-0.6707930751476008], [0.3571504303376089]], [[-0.8341539669992752], [0.3009362268374102]], [[0.6724361102545299], [-0.8154567171007714]]]}, "op": [[0.8781578180649897], [0.16028115904927084]]}, "3": {"net": {"sizes": [2, 2, 2, 2], "weights": [[[0.4488880129015412, 0.7693663237182099], [0.6947712902313591, 1.0923432844150573]], [[-0.7618667171590195, 0.10427931992811348], [-0.5869207096498977, 2.0074148576471904]], [[-0.4131647969523021, 1.1185800627035758], [-0.5187463751287374, -1.4898972296254118]]], "biases": [[[0.5953011239133246], [1.5316080106858747]], [[1.1455947572752017], [-0.21646232705479906]], [[1.149890960697185], [-1.0371084967201376]]]}, "op": [[0.8483709217733971], [0.07507912323830349]]}, "4": {"net": {"sizes": [2, 2, 2, 2], "weights": [[[-0.29245080252919503, 0.045294273700345264], [-0.7529312371301659, 1.7416217614403091]], [[-1.778525640130081, -0.5049336752113187], [-0.18679205427773868, -1.1221213314950949]], [[-0.19773786993849626, -0.38647576634265607], [0.2677461712808407, -1.6782322820880107]]], "biases": [[[0.5166724063711564], [0.5237099567406741]], [[-0.038500460185275566], [0.44630389810821164]], [[1.9466598628615224], [-1.0818769140914535]]]}, "op": [[0.8528648885548151], [0.15496908708208643]]}, "5": {"net": {"sizes": [6, 3, 2, 2], "weights": [[[0.811464779661763, -0.5029240004592551, -0.5984895634488049, 0.06823297436680184, 0.08187479479736023, -0.9776401948353306], [0.22161176225374618, 0.13403644041420426, -0.1515745556363773, -1.8851879042445998, -0.41860963770607734, -0.0056628018783963065], [-1.1966317791167547, -0.6019437266353368, 0.8709616420138256, 0.324251783671781, -0.46491554763355736, 1.4102382050296942]], [[-0.46331301752227705, 0.5559696429723081, -0.2296323690802264], [-1.7576393256436575, 0.2522711176218608, 0.48120895009868514]], [[-2.321317489315504, -0.24533545152066022], [-1.1690003958090125, 0.40974893532484846]]], "biases": [[[-0.7275543594870861], [0.3914777873598762], [-0.39018912993060767]], [[-0.5644876882624394], [0.7776044125159015]], [[0.2454982866598581], [1.4783404795783985]]]}, "op": []}}