{"0": {"net": {"sizes": [3, 2, 2, 2], "weights": [[[0.9518550605352777, -0.659460092768842, 0.5293732354357846], [-0.031719479394408216, 1.381441876912306, -0.9440974362233665]], [[-0.8853776665926061, -0.8504235089055983], [1.3025541875451205, -0.7646357572761242]], [[0.6683762639716716, -0.19166519139069835], [-0.6094842238703116, -0.7589767206570809]]], "biases": [[[0.7825208707110892], [0.8299798440561401]], [[2.282218517626589], [1.91472355976385]], [[2.2252958792122475], [-0.7814107592217753]]]}, "op": [[0.9270961933022508], [0.1293420738036947]]}, "1": {"net": {"sizes": [3, 2, 2, 2], "weights": [[[0.5791326853702536, -0.5134771391283379, -0.5360237578195525], [0.07188525676373168, -1.5187107041992511, -2.8614905582331605]], [[0.2469445527323494, -0.2615117034859424], [-0.08077850852303639, -1.5805223819761687]], [[-0.5502216377535022, -0.08853175317423156], [1.0444307552614178, -0.1736247810442724]]], "biases": [[[0.9735425688652358], [0.9044840914196334]], [[-0.9111908004947276], [-0.8085855524971481]], [[2.174614410321092], [-1.9405345367757563]]]}, "op": [[0.8786654906272943], [0.16033987810994946]]}, "2": {"net": {"sizes": [3, 2, 2, 2], "weights": [[[0.7208427060625602, 0.7843927409478626, -0.0709651231119587], [0.6156677636513246, -0.3275047234822244, -0.07874976598387286]], [[0.7692768905992846, -0.7638772843667669], [-0.568206176813441, -0.5383540964852168]], [[1.899891105221173, 0.029230987297418718], [1.2832798582537912, 0.23214484242513278]]], "biases": [[[-0.6386021999673159], [-0.28824539827507634]], [[-0.7032036658400772], [-0.6880575794840406]], [[1.0732257135130974], [-2.0425011384263723]]]}, "op": [[0.8436978916149821], [0.1713419106095298]]}, "3": {"net": {"sizes": [4, 3, 2, 3], "weights": [[[-0.36468387556308085, 0.396265194039992, -2.2145361622335784, -0.03675010983860568], [-0.16453218624338217, -0.06511736445750246, -0.5454670024100073, -0.502976187788468], [-1.0781408614172991, 1.133917410376883, -0.10908707713516866, -0.43002027269469206]], [[0.01929749701475151, -0.3678956333326848, 0.9912313358361626], [-0.65841149398976, 0.920053995940065, -0.8458078344836297]], [[1.4746136593216927, -0.942688145781432], [-0.31171410075530803, -0.8561831246140499], [0.6599109567499317, -1.8862398325547525]]], "biases": [[[0.37827526432600533], [0.03657962986564888], [0.2769099597880644]], [[-0.6661115027124437], [-0.19463815827690986]], [[-0.8708983235665246], [-0.31819954777878273], [-0.3236406875119842]]]}, "op": []}}