{"0": {"net": {"sizes": [3, 2, 2, 2], "weights": [[[0.7933045464214267, -1.8920293381789073, -0.7764883380775246], [-1.820079181314789, 0.837795856228148, -1.4662388307146763]], [[-0.14550398864350275, -0.051381082113363716], [-0.6977606861946933, -1.0892535347274355]], [[0.14622804490474003, 1.292447843580706], [-1.9447467962847513, 0.9748284483144282]]], "biases": [[[0.6038198860963392], [-0.5941063154203949]], [[0.7233802504293959], [0.602301023409547]], [[1.1174670088334642], [-1.268588305529485]]]}, "op": [[0.8722475297588368], [0.11751211387994726]]}, "1": {"net": {"sizes": [3, 2, 2, 2], "weights": [[[-0.26429552995588174, 0.09503027571817192, -0.46184342288805885], [0.4714658143717929, -0.851416659840054, 0.24944837075985907]], [[-0.4641591430071361, -2.2653108101729735], [2.3284568764183335, -0.862729131733706]], [[0.5134280459559829, 0.7596767897887073], [0.8445255416103766, -0.6437343889148334]]], "biases": [[[-0.3144820583612427], [1.386871606495763]], [[-1.4214672384433018], [0.7968017826615141]], [[1.4054332646250973], [-1.2883991585095238]]]}, "op": [[0.8764450222267518], [0.1520006711147597]]}, "2": {"net": {"sizes": [3, 2, 2, 2], "weights": [[[0.02622851746367413, 1.1821504518605472, 1.3279496639658097], [-0.38561511463134734, -0.2754950710511991, -0.16574029714069893]], [[-1.2483819495579886, 0.43415972250577356], [-0.4119268598740447, 0.1978971468657068]], [[-0.7409497305522599, 0.3564604231966889], [-0.27490252033839624, -0.24804009952453915]]], "biases": [[[0.9641613551569503], [-0.9239392661100585]], [[-0.2758784481034331], [1.3353016379646732]], [[1.8578138992737931], [-1.5439776641856657]]]}, "op": [[0.8766811209580431], [0.14380955361596898]]}, "3": {"net": {"sizes": [3, 2, 2, 2], "weights": [[[-0.8001461155186799, 1.2333226222759237, -1.305839725523938], [-0.06872472495251016, -1.991926576470366, -1.0532786666917213]], [[-0.3865180263227317, 0.1580939088523023], [1.7655639958117058, -0.613121548194891]], [[0.567367696075467, -0.2908481606493713], [-1.0275700867641695, -0.5548024897101146]]], "biases": [[[-0.42324178034714766], [1.6686714843825847]], [[-2.1200803067253067], [-0.9960066750476994]], [[1.729312752436251], [-1.8107699791795726]]]}, "op": [[0.8425804743657019], [0.1074119149927628]]}, "4": {"net": {"sizes": [5, 3, 4, 3], "weights": [[[-0.9138576534929619, 1.0268350382954505, -0.47673306867079007, 0.5238297025297222, 0.9582293660241726], [0.3023360924643686, 1.0285261666653265, 0.5542125696102074, -1.6140252345095116, -0.2578431501655151], [1.0519383814748566, -2.401227422643511, 0.504133078594856, 0.06367186246906491, -1.6062726226330841]], [[1.5927814998209244, 1.5191248371683426, -0.3577191679673952], [-0.07022455651012885, -0.4149214169411409, 1.6361883775234316], [0.8552345848942554, -0.3830331621462998, 0.788420727038743], [1.0616641707900907, 3.081487065223765, -1.2838486241747913]], [[1.6157482153192892, 0.686963251356248, 0.9139280904882465, 1.2450480488870648], [0.07221694754416845, -0.11958635633758649, -0.6168267847813335, 0.34159695059426215], [1.8366466491423827, -0.5658988145376611, -0.9269997864268125, -0.8730074509334397]]], "biases": [[[-0.05104062968909607], [0.8601381934257694], [-2.211643671682328]], [[0.8777935690521375], [0.3522920297861663], [0.7109767192173839], [-0.679357216254672]], [[-0.25332544165185816], [0.33612880640904963], [-1.1985442109427213]]]}, "op": []}}