{"0": {"net": {"sizes": [3, 2, 2, 2], "weights": [[[1.0175143450313984, -2.255018577128919, 1.215272663113899], [-0.07137243745900174, 2.001853803659329, 0.12802033621337394]], [[-0.8202616671985737, 0.38008970891998384], [0.6363380473160036, -0.22128923940121925]], [[-0.6121777792789888, 1.8343079392452448], [0.7320341537873348, -0.15350869214458857]]], "biases": [[[0.5830050562440463], [-0.24148098044158983]], [[0.15889769644841006], [0.7780796887757885]], [[1.013422167247015], [-2.2274514908247456]]]}, "op": [[0.8854167382624187], [0.121617772242166]]}, "1": {"net": {"sizes": [3, 2, 2, 2], "weights": [[[-0.7821708716895313, -0.17468011048465915, -1.8528615134949706], [0.9451632107146027, -0.185465049351187, 0.2757962045207401]], [[-1.757948377854551, 0.6467777495786468], [-0.31567142280365706, -0.5529895146536439]], [[1.9005727183412673, -0.5284941894021833], [-1.3744404833542159, -0.3893904994654799]]], "biases": [[[-0.5713828912685358], [-2.240816703905083]], [[1.6088904714586743], [1.49882076768839]], [[0.9687957587801046], [-0.723689915735363]]]}, "op": [[0.8803586428009171], [0.11128801691029593]]}, "2": {"net": {"sizes": [3, 2, 2, 2], "weights": [[[1.8252408741243236, 1.1592079888790447, -0.33228591418954817], [0.16042045996967463, 0.42353096893711323, 0.7227158290289252]], [[1.7744366031926158, -0.6150947024158877], [0.32188003707224794, -1.1367663837280522]], [[0.009865750260181848, -0.9098730663960941], [-1.5336855810830166, -1.9646456480998098]]], "biases": [[[1.7784575347442664], [-1.0518013900366434]], [[-0.6564988318188715], [0.5015110759655651]], [[3.051491141319876], [-0.6751826844759521]]]}, "op": [[0.9260279903521941], [0.05465733703394821]]}, "3": {"net": {"sizes": [4, 2, 3, 3], "weights": [[[0.26654889314715113, -0.9802871691525993, -0.6480346806853959, 0.1807007774451328], [-0.5074939933042824, -1.5043106833681361, -1.8232850322802185, 1.1509148876795556]], [[0.6188551228177712, 0.5749603831485854], [-0.14558125341198036, 1.8324172503896548], [0.7757053917262983, 0.9636811057038965]], [[-0.44537585921182854, -0.7630618373862992, 0.8543453200407795], [0.19597139777545847, -1.0920710219608334, 0.20204946184482275], [0.35370570158439546, 0.083105441546552, 0.528765573801393]]], "biases": [[[-1.6694083465984624], [-0.26313214004772323]], [[1.6191450945603867], [-0.8364661234085349], [-2.3229603025883367]], [[1.2513019977251472], [-0.04814508203359937], [0.8121378529526669]]]}, "op": []}}