{"0": {"net": {"sizes": [3, 2, 2, 2], "weights": [[[-0.1683572119315736, -1.403749610907519, -0.6165858021737671], [-0.26189409886457626, -1.3678496225060286, -0.179204924561169]], [[1.368871877289673, -0.03996079359457929], [-0.6354881495948645, -0.5228952059075411]], [[-0.3183799246146772, 0.9434275637562325], [-2.4644770806645933, -1.6513948810688714]]], "biases": [[[-0.7792145625464386], [-0.695432377607465]], [[0.7556802455621155], [1.1333841463730028]], [[1.374957414301855], [0.5616305961701124]]]}, "op": [[0.8608782833758941], [0.08303797822574133]]}, "1": {"net": {"sizes": [3, 2, 2, 2], "weights": [[[2.2481164267302005, -0.7611664667714829, 0.0875730861725123], [2.2354935041892214, -0.16417991897836073, -0.9358567568609057]], [[0.07628218636162408, 0.8542534175235478], [1.3851401493491031, -1.8512844306079548]], [[0.2124610128631667, 0.856678859709429], [-0.27788825174027126, -0.8626290963118334]]], "biases": [[[-0.7514704683938075], [-1.1078211419360542]], [[1.5704361626122083], [-0.7633287826202836]], [[1.5208575629043315], [-1.612899095162287]]]}, "op": [[0.8785998444051567], [0.1060791447805732]]}, "2": {"net": {"sizes": [3, 2, 2, 2], "weights": [[[-1.6139235535941767, -1.502574620101691, -0.3697705776640713], [-0.009989139049082472, 0.49828111546889103, 0.9983037683828325]], [[-0.9412186725989419, -0.09117346848902733], [0.1338672713039525, 1.019942542511532]], [[1.3969755328147486, -0.9435333046939081], [2.144398063438314, -1.8143075232900534]]], "biases": [[[0.11349590261105166], [1.2362868212535216]], [[-1.635125915180322], [-0.07545577969392624]], [[2.2363061660871137], [-0.8675154112714287]]]}, "op": [[0.8550827300174827], [0.13785961660810722]]}, "3": {"net": {"sizes": [3, 2, 2, 2], "weights": [[[0.882508077749767, 0.5545745968474439, -0.2495732427619344], [-0.9126533071528187, 0.20272975604295188, 1.1794532017070252]], [[-1.5132316234829246, 0.4183746269977559], [-0.6530307687929121, -2.257370662456541]], [[1.0035231967447158, 0.1546793801122615], [0.11209211536682856, 1.106499162270856]]], "biases": [[[1.2777832164567169], [0.02387624612889063]], [[-0.2971679926225877], [-0.20733021658878847]], [[1.4017545392996982], [-2.0134873766516113]]]}, "op": [[0.8346668106862489], [0.13347294348874716]]}, "4": {"net": {"sizes": [5, 2, 2, 3], "weights": [[[1.5829613995311966, 0.6652199388409239, -0.1678746509859463, 2.5588531524556393, -0.3228854229083009], [-0.9157613283585122, -1.2502557298496426, -0.14201422213074347, 1.5449601669676027, 0.6530689830076268]], [[-1.3783264079631155, 0.126637611907573], [1.9730188839362623, -0.031457523907968236]], [[-1.085090473268962, 0.5171681115491346], [0.4261745203693589, -0.04891355986459101], [0.006620355112596469, -0.1052968090547543]]], "biases": [[[-0.705977618022875], [-0.5830388786325137]], [[-1.0639079040577792], [2.498373465132845]], [[1.4353763259362065], [2.1080612483033643], [1.8740281252076538]]]}, "op": []}}