{"0": {"net": {"sizes": [3, 2, 2, 2], "weights": [[[1.1885154147868957, -1.3066520138993618, -0.5512395784677584], [-1.2555263999475006, 1.1806121859934064, -1.3956922711504574]], [[1.433886963445671, 1.7064908342186005], [0.3773851603333622, -1.425092988975881]], [[1.0258746749119134, -1.1390949544801423], [-0.7034194919027023, -0.24295812437171144]]], "biases": [[[1.8841815870535559], [0.5537922416466012]], [[1.1577556273500986], [-2.882661864420741]], [[1.0105472765056407], [-1.5251942753717562]]]}, "op": [[0.8709183906938622], [0.09974955764287011]]}, "1": {"net": {"sizes": [3, 2, 2, 2], "weights": [[[-0.09136018650430142, -1.4671358261764864, -0.6845812760760632], [0.39257524548353495, -0.3422010344396338, -0.801636236172774]], [[-0.5112079266610964, 0.6871267328469934], [1.928612455205516, 0.05028406451990947]], [[1.3815168738684163, 1.0312940666045263], [-0.9190216810072832, -0.12911409019008366]]], "biases": [[[-1.7052930890478004], [0.043142590804065975]], [[-0.1161451294261346], [0.8647143299775603]], [[0.8224884168794047], [-1.3133279903884552]]]}, "op": [[0.9124007482406903], [0.12853249278342788]]}, "2": {"net": {"sizes": [3, 2, 2, 2], "weights": [[[1.3511570067762735, 0.2626417659835168, -0.7741189138821251], [1.935469829570347, 0.12845537931818382, -0.23019376446758075]], [[-0.19375416429225012, 0.801650244430655], [1.4545894110722948, 0.3249253017965956]], [[1.66870421775183, -0.9248394581212904], [0.49169131613453093, 1.243702811150213]]], "biases": [[[-1.3851799031319685], [-0.9723629583724708]], [[-0.912344631677609], [-0.3030503962854346]], [[1.671939237235989], [-2.7467136333809545]]]}, "op": [[0.8542475998362686], [0.13173366487622928]]}, "3": {"net": {"sizes": [4, 3, 2, 3], "weights": [[[0.5064357161987191, -0.7661518683082218, -0.26380096224137173, 1.8246367423472594], [-0.8843383807566463, 0.006777979477084523, -1.0778248035377958, -0.06217936684808845], [-1.330242327245641, -0.8339863497836955, -0.7009493905537489, -1.2602146227021729]], [[0.12506135695820247, -0.059445334640178454, -0.0677571941629229], [-0.535253001128314, -0.13596816455975103, -0.24890135429553212]], [[0.38177603805003857, 0.924527710382856], [-2.080705463015034, 1.3546898211591525], [-0.09006328403363363, -0.37287679853804584]]], "biases": [[[-0.7721769888068656], [1.1440195336192855], [1.6421132059037011]], [[0.6335215420905964], [-0.06629464946618335]], [[0.12459087771533224], [1.246368001715132], [-0.9595975781355749]]]}, "op": []}}