{"0": {"net": {"sizes": [3, 2, 2, 2], "weights": [[[1.7460666275986043, -0.9383477033232778, 0.933342677507595], [-0.9262620928044523, 1.3981239266942362, -0.5187235975375761]], [[3.6420226111768805, 3.0139958392165784], [0.464276497546841, -1.3745359717497387]], [[3.3097951987480716, -1.050650057614516], [-0.732477174734266, -0.24340824065183556]]], "biases": [[[4.118839263986926], [1.8736905231194092]], [[3.527735397457393], [-2.7873850552670203]], [[3.3339554606583577], [-1.789397464153041]]]}, "op": [[0.9986577776880191], [0.07384201417733688]]}, "1": {"net": {"sizes": [3, 2, 2, 2], "weights": [[[-0.06399424481598763, -1.4517926758643818, -0.6110554733501014], [0.5464590877708052, -0.2517078393600976, -0.3885594876469583]], [[-0.4513725503723601, 1.0268871223110476], [2.0054103191961126, 0.47655411227557304]], [[2.0743233749390866, 1.9468285611265677], [-0.9590453817539567, -0.16852118039500075]]], "biases": [[[-1.6105467951005112], [0.586280598816592]], [[0.6757105444790759], [1.8282300329107577]], [[1.9693585791936583], [-1.5252304270377541]]]}, "op": [[0.9954622808556941], [0.08035254183444127]]}, "2": {"net": {"sizes": [3, 2, 2, 2], "weights": [[[1.4575697350650068, 0.30686085448028355, -0.49904076979660705], [2.2052763543844676, 0.2570408959672306, 0.44905024786606906]], [[-0.059307397909333426, 1.1323111480155443], [1.651873027756061, 0.8073221513510747]], [[2.3167838515885664, 0.023485051536202856], [0.3920063554495814, 1.1148910394446292]]], "biases": [[[-1.0881092141283453], [-0.202641119162302]], [[-0.29164554083569094], [0.5974630855885575]], [[3.1546756813602146], [-3.19196285498929]]]}, "op": [[0.9912820706883061], [0.12739902693946198]]}, "3": {"net": {"sizes": [4, 3, 2, 3], "weights": [[[0.9484627757433144, -0.35037173123517895, 0.1006897790553541, 2.865283068638383], [-0.5044841544399895, 0.36446043526309013, -0.76524844489395, 0.8091716053622452], [-1.1138551934198775, -0.6299899083731512, -0.5228234835074415, -0.7509349585947402]], [[1.1773168608415139, 0.8676995815924156, 0.49809512995890826], [-0.5280323686917621, -0.1565616132230599, -0.304856225709497]], [[0.13826152056664942, 0.8193507345827088], [-2.2789267442228813, 1.2688806425337062], [1.00540776292477, -0.09573534889231462]]], "biases": [[[0.30637101449966725], [2.0268189343013603], [2.170646271836671]], [[2.1251827239411702], [-0.3396508252053627]], [[-0.9805920701864025], [0.40792775029857453], [0.8790954909200965]]]}, "op": [[0.3426242631085232], [0.1758791363488182], [0.8640637713625922]]}}