{"0": {"net": {"sizes": [3, 2, 2, 2], "weights": [[[-1.2141879235358903, -0.15301526250266964, -2.011990264860361], [-1.4478088845931634, -1.2778302193717423, -0.41903771424240177]], [[0.24415860652512025, 0.5572275364369642], [-0.24490981053895677, 1.3012592733748936]], [[2.989847617298905, -0.9504175270077031], [0.9883660681506964, 0.20803288147346455]]], "biases": [[[-1.5714224689606526], [0.15011733791010393]], [[-0.4663508777609282], [-0.9295982629435765]], [[1.1861938684966862], [-2.279565686208816]]]}, "op": [[0.8900538598074794], [0.14005971126682684]]}, "1": {"net": {"sizes": [3, 2, 2, 2], "weights": [[[0.10209546111556704, -0.004259226265125355, -0.7752268566872149], [-1.903674988700805, 0.09513486809890141, -2.099339009850758]], [[1.2255455317716561, 1.2007468521354878], [0.6801847754623476, 0.28110619535130166]], [[-0.5052694811625609, 0.7217141613315771], [-1.5300880719288439, -0.9797515591036229]]], "biases": [[[0.282877488308308], [-0.1681099403497789]], [[-1.3940804381858545], [0.6351671056221165]], [[1.2482014978084075], [-0.7456765347050993]]]}, "op": [[0.8340111228748145], [0.13048893904699285]]}, "2": {"net": {"sizes": [3, 2, 2, 2], "weights": [[[-0.5575990081937101, 0.4904075659695435, -2.4878588161792883], [-0.5542953579348101, -0.5170286454857969, -0.8267082541934516]], [[1.5676951573598472, 0.16761132776639462], [1.1173567804247684, 0.5824479310629802]], [[-0.6968101885664965, 0.4375470808471552], [0.6621296613946485, -0.4583893958491254]]], "biases": [[[1.4751701518941815], [-0.3134907104510515]], [[-1.2826487219041918], [0.9427790625753082]], [[1.816037719645372], [-1.553316485930102]]]}, "op": [[0.8702572435802766], [0.15815498957939841]]}, "3": {"net": {"sizes": [4, 2, 2, 3], "weights": [[[0.9847247240877897, 0.6522984014765568, -1.722623235863506, -0.5680762733855952], [-0.7898188614209578, -0.2825575372890821, -1.0545597592777123, 0.6755061745380868]], [[0.23412385404809902, 1.9049336547933253], [0.8497295569109626, -0.6536114489541918]], [[-0.37920381692494964, 1.6435904658177838], [-0.5743504082292782, 2.061021392383061], [0.8105855405305777, -1.3598666355381934]]], "biases": [[[0.36134604003003157], [0.0038562572154390807]], [[-0.6603343986167068], [-0.08462828069373542]], [[-0.2661684247615674], [-0.6304716095994065], [0.9551057770803933]]]}, "op": []}}