{"0": {"net": {"sizes": [3, 2, 2, 2], "weights": [[[0.2910388286255826, -0.9265844022717592, 1.8310293462110676], [-0.6703322372279912, 0.2747441186214964, -0.08010452941273041]], [[0.2323752868301685, 0.6467574647508794], [0.7606200466772772, -0.37053963831840275]], [[1.0730377661729391, 1.0438554466499368], [-0.29883584165007243, -0.13373831434547678]]], "biases": [[[1.1731066998847464], [0.11926839448858301]], [[0.5184288643633104], [-1.1275693318176734]], [[0.7364215219762535], [-1.563585520822854]]]}, "op": [[0.8669477412693886], [0.13870534399285908]]}, "1": {"net": {"sizes": [3, 2, 2, 2], "weights": [[[-0.38879080884135403, -0.5947228629215409, -0.9375446244465446], [0.5632102856344376, -0.1657820265537171, -0.9469679105788257]], [[-0.03770136540839025, 1.1169585637226347], [-1.4023948577012924, -0.413897910587111]], [[0.12582780856038922, -0.8257563194083402], [0.7437336958132708, -1.116657790162013]]], "biases": [[[-1.2032513933051383], [-0.4997466517323638]], [[-1.7319751365114722], [1.057369860512721]], [[2.2118329452130188], [-1.2834022382586607]]]}, "op": [[0.8432140930275245], [0.1331070446200089]]}, "2": {"net": {"sizes": [3, 2, 2, 2], "weights": [[[0.31576000580874136, -0.2035056121192097, -1.8852820818573215], [0.25821972461963943, 1.5640552277032573, 0.5496458734842633]], [[-0.05213269595929955, 0.12777079321991006], [0.6842865418038414, -1.8008807852937145]], [[0.42024379009948165, -2.0181990996936348], [-1.431254245058536, 2.0223213061219734]]], "biases": [[[0.5557349528734202], [0.4304625566954473]], [[0.514061722351463], [-1.4400710903222034]], [[1.789807030006916], [-1.218664806776634]]]}, "op": [[0.869428876188811], [0.12206518724498533]]}, "3": {"net": {"sizes": [4, 2, 2, 3], "weights": [[[-0.24852103781452423, -0.9977303729821514, -0.49187702596337685, 0.24467394936158327], [-1.129484113130586, -1.0377345155179627, 1.0484900164259356, 0.5765878764401239]], [[0.06851260126938517, -0.8865958305225947], [-0.9814771025847573, -0.2631298082595533]], [[1.8539173083105747, 0.0293147172004154], [0.1546417283900037, -0.8901058571530726], [-0.27246632199545984, -0.21827222031707794]]], "biases": [[[0.9941293200409014], [-0.07963372373957109]], [[1.21891157626478], [-0.3477465356518458]], [[2.6375645764600075], [-0.7647039939120467], [-0.07025065541721155]]]}, "op": []}}