{"0": {"net": {"sizes": [4, 2, 2, 2], "weights": [[[-0.06868963358584715, 0.23543962369863664, 0.8109716686908521, 1.1367211479614276], [-0.811596585221995, 1.961981270652596, 0.2127467174401453, -0.5043676499256416]], [[0.2451959299711103, -0.283708094352999], [0.8889623296435248, -1.1535551305897085]], [[-0.562098303078393, 0.8825764941200632], [1.215923814674409, 0.1734579463511541]]], "biases": [[[0.4257144192698957], [1.0041224550656254]], [[-1.6523640449021717], [-1.1599430516674267]], [[1.6631058145114164], [-1.7018376649722944]]]}, "op": [[0.8506415689036204], [0.1848169049001638]]}, "1": {"net": {"sizes": [4, 2, 2, 2], "weights": [[[-0.8286706153320706, 0.20642546875665413, -0.503730075675622, 0.7911112073471867], [-0.24685798469425824, -0.9689830833402413, -0.383327761301962, 1.1649241770148595]], [[-0.7744216207971778, 1.1971908088993122], [-1.2360403383741714, 0.3212503380752337]], [[-0.2854553901816896, 0.1862664063773598], [-0.2088040589447302, 0.5119917615018762]]], "biases": [[[0.21629724919207421], [0.4775671398499484]], [[0.8586367679748442], [-0.4695230335807735]], [[2.087719621555795], [-1.4310696716864666]]]}, "op": [[0.8728005423435365], [0.19234858435160512]]}, "2": {"net": {"sizes": [4, 2, 2, 2], "weights": [[[1.1234915706899056, 1.1635497492055944, -0.46684686495657896, -0.14248382399747292], [0.06540431407624997, -0.3773680087541456, -0.16508353594445277, 0.669754830900501]], [[-1.6194211591357548, -0.15846059462778045], [0.8841434336061899, 0.6763224590895384]], [[0.24821769097762086, 0.9260260091051986], [0.36204948080783156, 0.547560908092576]]], "biases": [[[0.5026032124534952], [-1.7776725950932182]], [[-1.1773109007668296], [-0.6911013254629295]], [[1.3144890820646904], [-2.633773833211523]]]}, "op": [[0.86078326996032], [0.08971013737041383]]}, "3": {"net": {"sizes": [4, 2, 2, 2], "weights": [[[1.717450606666919, 0.9916378146483289, 1.070160575669637, 1.9383695214593402], [0.27465690282171124, -0.7681719002526912, 0.10484047818460346, 1.0420590145759843]], [[-0.81170485910035, -1.7299303300247892], [1.4430964638736583, 1.571677497217088]], [[0.6668229121246632, -0.19198493964944557], [-0.7237272475880022, -0.12000476755285469]]], "biases": [[[-0.4340886974158103], [-0.24169778578678652]], [[-0.6091302428917399], [-2.0031709512513043]], [[1.921931785842331], [-1.4112131655007518]]]}, "op": [[0.8708736842890848], [0.17484600510339085]]}, "4": {"net": {"sizes": [5, 2, 4, 4], "weights": [[[-0.4701542228493986, -1.0959294775753392, -1.5876050039914005, 0.09790682169333757, -1.8329225072030686], [-0.2127727041170558, 0.0763450913847738, 0.8754251213773171, 0.27617634713716155, 0.5362721134146115]], [[-0.4850326097152446, 0.2224004382244024], [0.3340948860222001, 0.06498531787644672], [1.4773192379929447, -1.9036516553137555], [0.17060800864939352, -1.7046347903805255]], [[0.5423758037334464, 0.0686607702106829, -1.3107688062847864, 0.5550868388317048], [0.284283784668472, 0.33768606541322044, 0.3735374989062756, 0.6812134326589491], [0.06401619485346025, 2.3158832224643398, 0.8153040140465405, 0.1367181162153392], [-2.814292870768617, -0.273796523328134, 1.2748127078048763, -0.02935755597969928]]], "biases": [[[-2.6315588458090193], [-0.5130133710192264]], [[0.8899176471270802], [-0.20619433287613861], [0.9714138427932846], [0.43650827203091236]], [[1.0623924449051898], [0.877766914202057], [-0.63997978581581], [-0.2788270076931769]]]}, "op": []}}