{"0": {"net": {"sizes": [4, 2, 2, 2], "weights": [[[1.8705196359700604, -1.7056442307419308, -0.34064831697112813, -1.1267809732912588], [0.48908253637973076, 0.48142245711551857, -2.0544889218763642, -0.907416776504905]], [[-0.9922023532733932, -0.28616043552426335], [0.3083388665961134, 1.0237614226866902]], [[1.7640865788217337, 0.31278129657068726], [1.4058678420231356, 0.6725401967044768]]], "biases": [[[-1.1020948534682398], [-0.15253357013078375]], [[-0.7510294194746155], [-0.16006198607699915]], [[0.7628893922583077], [-2.314531319704834]]]}, "op": [[0.8064415564642003], [0.1713942151389975]]}, "1": {"net": {"sizes": [4, 2, 2, 2], "weights": [[[-0.08463929530020062, -0.1600540070997942, -0.1843834887880292, -1.588912197005872], [-0.8636431951731555, 1.3459475766497875, -1.327585041323248, 1.3684196431847941]], [[-0.2363106413025528, 1.9278156346487294], [0.2129267494747879, 0.24923472596769825]], [[-0.00041428273969025976, 1.0502101922652143], [-1.6714861948633806, -1.154060285273365]]], "biases": [[[1.8996520898855132], [1.3546205681787475]], [[0.9230902677515689], [1.2461272822139051]], [[1.0695841639532344], [0.046030655385170656]]]}, "op": [[0.8740849536293978], [0.08099850262553474]]}, "2": {"net": {"sizes": [4, 2, 2, 2], "weights": [[[-0.8087026037537621, 1.2798992651443246, 0.8312469429935491, 0.37556009238036603], [1.5419513651855186, -1.1579180644678329, -0.06581850668820197, 0.6935016409387229]], [[-1.0757334779539103, 0.18891712568706057], [0.7914952811439262, 0.26515037837402566]], [[0.15270812370768638, -0.3233917951231808], [-0.7423432374593006, -1.4095244597465932]]], "biases": [[[0.4527291619402485], [-0.6827312199449638]], [[3.073913098575495], [-0.6727401742545371]], [[1.9384792324800018], [-1.3956635194685445]]]}, "op": [[0.8707245928589851], [0.05699046735424115]]}, "3": {"net": {"sizes": [4, 2, 2, 2], "weights": [[[-1.0657996660994649, 0.5102358003850866, 1.207934678652727, 0.5749958422169007], [-0.201685546870099, -0.6279423671124752, 1.1532850097321161, 1.8471512153768508]], [[-0.8452767821264966, -0.2381806708805564], [-0.26256405883880624, -0.5297608593299065]], [[1.1938025616370356, -1.3074684342074212], [-1.5915239618497066, -1.48285406112769]]], "biases": [[[-0.11133404178220453], [2.894111281963599]], [[0.4517297352447599], [-0.3346292915180364]], [[1.5516537816695937], [-0.6539918432145889]]]}, "op": [[0.8521285491006622], [0.1393897785074369]]}, "4": {"net": {"sizes": [5, 2, 3, 4], "weights": [[[0.7378677295347585, 0.7556305455720833, 0.3937269368563212, -1.1275896158504044, -0.0946625789191046], [-0.23027438918085633, -0.5399735036833464, -1.5843355337476182, 1.9310549790050069, -0.23237394606380335]], [[-0.9351239486960256, -0.35577666894996507], [-0.1981256933706405, 0.4222911765950522], [1.449670560464899, 0.7863155907705041]], [[-2.6496824301325246, -1.4420398684146767, 0.7770058629749131], [0.33065187657529715, -0.22189415931898732, 0.9357790515120955], [-0.2024312085524958, 2.4599723991405806, -1.151991748384026], [1.5175330687220405, 1.530437157083889, -0.020169591432756977]]], "biases": [[[-1.2149172621019104], [0.543604420487356]], [[-0.6556321630645923], [0.4041691313894678], [1.7595299383038874]], [[-0.47293638624959616], [0.45912243989843976], [-0.5686472878584119], [-0.176040916504552]]]}, "op": []}}