{"0": {"net": {"sizes": [2, 5, 5, 5, 2, 5, 2], "weights": [[[0.8943132831994123, -0.33797599537004713], [-0.49574773578271575, 2.5381815948561006], [-0.2943345374663456, -0.9798987268903117], [0.5562490694564433, 1.8613788682974404], [1.2896434204591074, -0.579979076809611]], [[0.8605140530340505, 1.0089908424236316, -0.744277238417934, -1.1021855024161202, -0.6907128518724037], [-1.2142946672416735, -0.6732502865178147, -0.8380313429226717, -1.6013743872473976, 0.5802447095837229], [-0.7845303431637456, -0.7602519766619777, 1.9588028916337596, -0.3118356025730947, -1.3034735899137313], [0.8849180016785971, 0.7020308464563967, 0.03338943801425937, 0.2910773135455308, 0.7229664900795716], [0.8889916550392772, -1.8459194725404293, 0.8742287930118455, -1.2833583489028033, 0.4868056013627567]], [[-0.4941166466409575, -0.23649321399901285, -1.524166813486159, 0.3768008310043312, 0.1596042140553844], [0.7380584368684938, 0.9442074364939976, -1.3177977436145527, 0.4434945661027765, 2.1765486305481865], [0.09975647507230695, 1.7946198794628543, -0.031089135876240664, 0.8790368235850552, -0.032499174065681084], [-0.0711171856434361, -0.10129651635097564, 0.2645953464811619, 0.38230524472219474, 1.6904660343791238], [-0.7568532947319452, -0.6451566949998039, 0.6181583197613308, 0.6261566234414881, -1.5554459939432215]], [[-1.0763631075636657, -0.23165492251924918, -1.401238862816885, -0.7019356415357172, -0.3781697638127489], [0.27085108809604347, -0.38730783040704636, 1.7786288598421638, 0.006276049734281951, 0.1700904869108517]], [[1.0067684027953092, 1.1217052089197084], [-0.08792222888946818, -0.004485145793131755], [-0.21105090828785658, 0.21379428363726757], [0.2635544828706576, 1.7922431074104992], [-0.5057199373295596, 0.4762850087962829]], [[0.34025561445044084, 0.310677442849064, -0.8173527324259531, 0.581270487643924, 0.39939680895641644], [-0.13419535684937417, -1.2896741400412963, 0.18987722416493616, -0.5488599773395085, 0.3796596485003934]]], "biases": [[[0.16752962230872231], [0.5417322208572373], [-0.8605410661063546], [1.094186403902907], [-0.14526870901158484]], [[0.6160128090751616], [0.03743296165582161], [-0.3740473150042809], [1.7133953003252211], [1.3711998522046356]], [[-0.2895406336925449], [0.03355642607749073], [0.7136723127577377], [0.9691883159324565], [0.9682078899003284]], [[-0.3440566478845209], [1.3786473817858438]], [[1.8591506108411995], [1.3275805324882397], [-0.6951577388277644], [0.5910379690257873], [1.0374452442509812]], [[1.1711702208176138], [-0.8829819932577496]]]}, "op": [[0.9075457254821572], [0.10462843703089238]]}, "1": {"net": {"sizes": [2, 3, 3, 3, 3, 4, 2], "weights": [[[1.8339972533738496, 0.5242590327729133], [-0.8073329822746225, -1.5291625589503446], [1.8451174067239602, -0.9172710761094042]], [[-0.5743121171589022, 0.4365639317724334, -0.16617599798527907], [-1.2274530467855715, -0.4048990893188183, 0.9279826265183782], [-0.6223856312087687, -0.4348382768918837, 0.06840355372849813]], [[-0.3442767529381338, 1.9328353115078625, 1.0493915026836578], [-0.33726444708927533, 1.9656863238855318, 0.26567187041091306], [-1.1491363459246011, -0.03562661665831515, 0.9766093955577752]], [[-0.9377946860363939, 0.6182995197305651, 0.28469135799942824], [2.458899505004429, 0.7220239992298367, -0.8877872093173973], [-0.7709558485905208, -0.3748099228289117, 1.0058470013040937]], [[-0.009301421739945474, -0.5097523519381938, -0.914343760453089], [-1.0789771909519656, -0.4492594403930959, -0.8090733898476805], [1.013972787943179, -0.32234936957930777, 0.5786130818875066], [0.6487402486099119, 1.1786578484738224, -0.08665369411545311]], [[-0.8830319346879792, 1.2537346879506808, -0.426386249942594, 0.703024570327587], [1.798891901585173, -0.2183193315152396, 0.24272708983729724, -1.76583286912548]]], "biases": [[[-0.47017826701249077], [0.37590196963306577], [0.4911169106465434]], [[0.42879583969108476], [0.11443002859051407], [1.2139474766813656]], [[-2.530089897637726], [1.369587739247092], [-0.6962872064907041]], [[-1.5722896235909958], [-0.28624418377362915], [-1.117912019965544]], [[-1.0897219934934759], [-0.8911915599933479], [0.8368234989862307], [-1.1588439645881858]], [[1.6391275524969267], [-3.2296933189864014]]]}, "op": [[0.8454196396752138], [0.027388900649273403]]}, "2": {"net": {"sizes": [2, 4, 3, 4, 2, 4, 2], "weights": [[[-1.5756650535334307, -0.6918048812189771], [0.48604868519895106, -1.0387112426759126], [0.4078981949699628, -0.8311164517767526], [1.1622439648383505, 0.12840801360968943]], [[-0.2650007689902114, -0.8559436940588019, 0.005675185802899019, -0.5347113975068534], [-0.06127791110685324, -0.15263102539202428, -1.1312343858034393, -2.2000327503844357], [1.243586513082073, -0.6534498115168695, 0.15697523740427205, 0.23802157486954764]], [[0.629963720931846, 1.085082727956059, -2.274897900787011], [-1.0502783049685103, -1.3726553300488502, -0.15472847057220054], [1.0654407066880742, -0.5047730914995807, -1.7294963237260634], [-0.7829494822126519, 0.4364363194414923, 0.6509768117428999]], [[-3.109160673276663, -0.8689265660655333, 1.163933711680186, -1.9766705127636068], [0.19238799282221355, 0.8442198276602075, 0.284666759422857, 0.07776797529691924]], [[0.3929393682583474, 0.3172089686501055], [-0.3010195663453178, -0.07599088953303654], [-0.40561927505163814, -2.35261379957148], [0.44576681996997114, 1.6327466426989419]], [[-0.36737244837802163, 1.0055261240823612, 0.4698857303143403, 2.5709118849670514], [-0.16172095587728588, -0.5995668753796133, -0.48852906029340265, -0.7312454649339196]]], "biases": [[[-0.1636801049801004], [0.6295529498883751], [-0.5816287998066564], [-0.0609877066405356]], [[-0.921976890028896], [-0.6001063398009594], [-1.3701487379946902]], [[-1.069692343475021], [0.11144251854058349], [0.033563621732442], [0.6079413190222367]], [[-1.0633031356689242], [0.1325360695208042]], [[2.709426412677846], [0.8712681779415832], [0.6151877680149516], [-1.0374485576141819]], [[0.3345318134905869], [-1.2214626284739178]]]}, "op": [[0.8954862270763692], [0.09088443801214355]]}, "3": {"net": {"sizes": [2, 4, 2, 4, 3, 2, 2], "weights": [[[2.4306254657665374, 1.0784145848685618], [1.1303129389816515, 0.09796193684636613], [-1.6988300084709986, 0.4553033792306646], [1.0904602479913277, 0.27585120417446074]], [[-1.2735556273632571, 0.414752990281427, 1.9942559663733705, -0.3901201976432275], [2.6334796974405563, 0.3509965962704651, -1.018450688235953, 0.7878595637282723]], [[-0.2936272356453273, 1.6395484638591016], [0.0051894904518514475, -0.4473812057714363], [-0.5385863051570537, -0.7165248741317276], [-0.26959481125564755, 0.8821473810060756]], [[-0.3403643512525964, -0.7826941041727767, 0.10643515559431262, -2.300193823247416], [-0.6157450910000233, 1.16600108403464, -0.9765181919226911, 1.5690719605565817], [1.2300060064930902, -0.8194521268747592, -1.7464571811982805, -0.08474806019039954]], [[2.1598503536070273, 0.4095632398020011, -0.41346789411153817], [-0.2104992436677789, 0.9167872888466226, 0.10092362172355503]], [[0.18259312471287173, 0.2597233776805692], [-1.4194106907321336, -0.8842254849083812]]], "biases": [[[1.0337474011171601], [-0.3126993831564732], [1.27803724989741], [0.05849607387145958]], [[-0.4242965867819209], [-0.5278300825984343]], [[-0.920315871613598], [-0.9330855004206838], [-0.9413380880062301], [-0.32487600724822413]], [[1.378141700695522], [-0.4373919084220795], [-0.8652519582848377]], [[-0.13006923144221186], [1.03932353677147]], [[1.539613478465353], [-0.4989620410111717]]]}, "op": [[0.8676378129560867], [0.09795253598126191]]}, "4": {"net": {"sizes": [5, 4, 2, 4, 3, 4, 2], "weights": [[[-1.0475093190247817, -0.05570587437953893, -2.5536898875423977, -0.38576187251713234, -0.022568183381964424], [-0.2951698328746042, -0.6280077061591741, 0.3478124314509238, 0.5822555509860203, -0.7499213382273134], [1.0992226970973482, 1.2820552636975666, -0.16037612883330918, -0.614957907416206, -0.7008486714204201], [1.3262613731849398, 0.05588970276742179, -0.8776221846911868, -0.5660297475772291, -0.770620076887603]], [[0.11428182516470312, -1.7315838086149866, -0.24841194557728355, -1.428040834235645], [-0.9367419589133037, -2.5487176264025675, -1.5862940828815437, -1.0143616757117455]], [[-1.2280896513657096, -1.2598573886601991], [1.168596545767839, 0.5276171477537882], [-0.8580791354269767, -0.907635793914371], [1.5297522468678242, 0.3450132125769063]], [[-0.2843333426757666, -0.4856409338681286, 0.11969479520170978, -1.0666492311944347], [1.2534169551658687, -0.22085248700130594, -0.16442777918701634, 1.4331086629746264], [0.6215319143815797, 0.9212153056444687, 0.8793703036064595, 0.23904868429594933]], [[-0.0869496854185136, -1.9237190479372326, -1.8227326576513185], [-0.9194254806499899, -0.9803474895306973, -0.45046440093101736], [0.27643015351757205, 0.7743473362980351, -1.3027555663015074], [1.5444160625196077, -0.29390309296215833, 0.17374653736388546]], [[0.2104109575930884, 0.35576991880671793, -0.9589763392269957, -0.042733345535063146], [1.2594497399676734, -1.1626632646810866, 1.0237756728395138, -0.9880109760896681]]], "biases": [[[0.04869926934805064], [1.713709410643248], [0.9003874773372469], [-1.1801408455617173]], [[1.1654393304746902], [-0.7766919496458493]], [[-0.14058313970989897], [1.1719409187372711], [-1.0626693618028564], [0.08843703087857703]], [[-1.013022791413628], [0.7335824115732181], [1.1691050839164876]], [[0.3036429301451927], [-0.4642856467805895], [0.996275948169446], [-1.0187113437467268]], [[-0.2013585892420498], [-1.2535829628022435]]]}, "op": []}}