{"0": {"net": {"sizes": [2, 5, 5, 5, 2, 5, 2], "weights": [[[1.729284958363822, 0.35733753205106056], [0.4892621842710184, 3.3584379423563484], [-0.08324629962468613, -0.8041171282339719], [1.5943398092804628, 2.7258376969690383], [2.083622195289979, 0.08119798595526956]], [[1.9148859435331607, 2.2389006482234177, -0.4781376759455083, 0.18714453951723728, 0.3140944355087123], [-1.1317678041732582, -0.5757415463109855, -0.8171561554503354, -1.4985249269672676, 0.6586993737564125], [-0.6761177865678497, -0.6320180123840409, 1.9862299864808555, -0.1765096659902004, -1.2004328087648795], [2.115601882217597, 2.1529293291131784, 0.34447295259901534, 1.8196761663662526, 1.8933687107466883], [1.743230341528802, -0.8577115100646111, 1.0899125527170426, -0.2510425168130537, 1.302342368842028]], [[0.3669393824393127, -0.17071813722616735, -1.4379506113060054, 1.361211144758181, 0.8701358327240807], [2.0183253332939435, 1.0455982046004482, -1.1844670418409633, 1.9528848202776505, 3.204489463530919], [1.3665517482061116, 1.894963251650351, 0.10086346226681746, 2.372561190807935, 0.9852164838929489], [1.2165886775889045, 0.0009522761186735416, 0.39908156459746635, 1.9035506090836267, 2.7233506785230492], [0.26466179167245996, -0.5653537050919928, 0.7229700502533801, 1.8161240373879144, -0.7251574732124949]], [[-1.0453631843540778, -0.18156810190618308, -1.3516785118652883, -0.6512919703256307, -0.339468308072027], [1.2487981094573315, 1.1092470335323692, 3.259395935431941, 1.5143179633093096, 1.3507386238880064]], [[1.0587692658441485, 2.659549518103166], [-0.0409908399784517, 1.4074406891830997], [-0.18574540940578424, 0.9977476058079195], [0.31434991909044385, 3.300968783023171], [-0.45824393128824525, 1.8993251176215313]], [[1.8609816861926602, 1.6991410163414755, -0.0339327678709026, 2.0724684257859884, 1.8100959611674567], [-0.12675120837905346, -1.2897962645038228, 0.1826459422645856, -0.5434624593254964, 0.38056369439670756]]], "biases": [[[1.4072065262708515], [2.0041704317104725], [-0.5471389403976739], [2.635433398262104], [1.0335459519339927]], [[1.9485635958383456], [0.14428243303872626], [-0.23339808707560972], [3.299830935675717], [2.4351641574406546]], [[0.7009022000780911], [1.55480936797457], [2.2189810173999858], [2.5026221291177118], [2.1668064387124737]], [[-0.2905329458690674], [2.9503416127492677]], [[3.424177388221289], [2.771408717147229], [0.09336839067829977], [2.1269311017853054], [2.4814776632185986]], [[2.7251852333617252], [-1.010454201566059]]]}, "op": [[0.9999581387183935], [0.0804723203461429]]}, "1": {"net": {"sizes": [2, 3, 3, 3, 3, 4, 2], "weights": [[[2.4102969211937095, 1.0307280095954297], [-0.6682515529733144, -1.4069337375114521], [2.4128680231167356, -0.4183152553250617]], [[-0.20906223334545013, 0.5248617405759681, 0.19378257771696886], [-0.8861358517750875, -0.3223811684035562, 1.264360084913686], [-0.12545195768653217, -0.3147407017268006, 0.5581092345321809]], [[-0.21809250064390004, 2.0508068404554063, 1.2207386572137733], [0.060130570028600255, 2.3370097547421635, 0.806534516778933], [-0.9846667243402223, 0.1180873468890982, 1.2002496628493111]], [[-0.8768722858083424, 0.8111710772598173, 0.36434681528304086], [2.6330543880518182, 1.2702331371703208, -0.6608566811858796], [-0.7169161482875231, -0.20366366960411864, 1.0765192783247854]], [[0.024783645600685467, -0.4129755506594933, -0.8840959283171279], [-1.0451625351196516, -0.35328600707974844, -0.7790647975156826], [1.1737998190197871, 0.13239747434758942, 0.7204275235937959], [0.7524828386086164, 1.4746305128274988, 0.005380668011859331]], [[-0.7666939186566284, 1.369171017837835, 0.11855971263628623, 1.056267180804328], [1.8022426243124277, -0.21499094493542434, 0.25832499053515795, -1.7558037887803044]]], "biases": [[[0.21441648288920667], [0.5411188205618466], [1.165556118127469]], [[0.8534680396871452], [0.511193601900626], [1.7922181609648336]], [[-2.29629069584265], [2.116028538914196], [-0.3890498449249211]], [[-1.3659483759120348], [0.2995341781994064], [-0.9347986430444859]], [[-0.957598316796107], [-0.760045046353688], [1.454455435073658], [-0.7595392874347708]], [[2.3434528583682765], [-3.2093993734000357]]]}, "op": [[0.9638005628454557], [0.01922044250376695]]}, "2": {"net": {"sizes": [2, 4, 3, 4, 2, 4, 2], "weights": [[[-0.8888052489817226, -0.4741710136228086], [2.8152097208602713, -0.193588675955546], [2.034668696112039, -0.2964369085825329], [3.584465830344443, 1.025702281403691]], [[39.76870793953557, 39.95186150270049, 40.51797350920188, 40.27385757278433], [32.10222920461442, 32.11526290480212, 31.08963146566507, 30.073123240899204], [42.13343474524143, 41.8497137558057, 42.06529007787884, 42.74926179789863]], [[38.46855642879047, 33.147062138315285, 35.79059303998706], [39.65045167231978, 30.86712106032576, 42.048178483757496], [41.65463547952591, 31.72008136580241, 40.15055350466015], [40.0356210774973, 32.70466848287691, 43.156282526836314]], [[20.429816997057262, 22.964893265653288, 24.97475218133408, 21.889384897256225], [38.536846116480156, 43.998256558076974, 42.993518323642434, 43.84144865367149]], [[24.28235902200506, 44.49248936882113], [23.572929887138997, 43.84147382872947], [23.328990507947672, 39.03234294435699], [24.310158056785603, 45.39173092522688]], [[44.06435348385267, 45.12266225696705, 41.91627122984402, 46.49231594682124], [37.36101071938418, 36.91331195983317, 36.87051808424929, 36.77545676488324]]], "biases": [[[41.11833649780349], [44.641346482161104], [42.29929607430952], [44.04513742485204]], [[39.973299188933005], [31.695328259672657], [41.29988900832883]], [[37.336881449813326], [43.427286459793045], [42.89307807864886], [44.59726018677739]], [[22.828516523857875], [44.346666570469495]], [[47.18881881735956], [45.04165280672977], [42.09065971862409], [42.944576526481534]], [[44.81566751968322], [36.22346231509946]]]}, "op": [[0.9950468132789653], [0.06176982877688517]]}, "3": {"net": {"sizes": [2, 4, 2, 4, 3, 2, 2], "weights": [[[4.245223068833024, 4.145827102172398], [2.944176430132223, 2.9544356809720713], [0.11576394981329835, 3.5269602974322853], [2.9045359767713297, 3.210678763008563]], [[26.919410756727284, 27.579061310169944, 30.215493641407388, 27.217940685356663], [31.070250583921908, 27.653514326678913, 27.44847980558978, 28.567306915940037]], [[27.870084042576106, 30.00192708159451], [26.981757095098448, 26.601631909487537], [24.841519789473853, 24.70445152221336], [27.87545611309481, 29.223213754617174]], [[27.08652693931652, 25.860496809113492, 25.34869727995559, 25.116213635363103], [27.53780651846129, 28.138736826184296, 24.40230047249571, 29.704244832699622], [29.012620946488955, 26.00604355996266, 23.562262723834262, 27.684402548071482]], [[29.657124744303353, 28.668600497729166, 27.440705817018888], [27.343787234359464, 29.264481019320677, 28.01461849636236]], [[28.711727187967224, 28.90737650946893], [21.641946790465145, 22.188561681845393]]], "biases": [[[29.586122918991872], [27.053234395447983], [29.86092566226275], [27.917027573309717]], [[28.027866103034903], [28.21440007667914]], [[27.528569729837308], [26.148120753103374], [24.499379664165872], [28.102061758973093]], [[28.998890483859224], [28.006513021073282], [27.11114086283305]], [[28.473819094585824], [29.771163941182024]], [[30.32363375169454], [22.58769690462894]]]}, "op": [[1.0], [0.9999999999999962]]}, "4": {"net": {"sizes": [5, 4, 2, 4, 3, 4, 2], "weights": [[[-0.8115716347292431, 0.16394909744302244, -2.5316848855376177, -0.3434111402864973, 0.5145515537790445], [0.16137585399986754, -0.19676744456655523, 0.4417924374120059, 0.7120251132931568, 0.3043915648841969], [1.577830048477855, 1.7335954999848593, -0.06874109248011288, -0.48442939940883295, 0.40322587379465896], [1.449749101935862, 0.17114094358358026, -0.8616322035825263, -0.5404811686521284, -0.48887116317293666]], [[0.36638113472459843, -1.2496759307111713, 0.25682431674067707, -1.296584014903521], [-0.9327043665055859, -2.5392328708213063, -1.5765376608328436, -1.0121285494052488]], [[-1.0051448164163908, -1.255416861678902], [1.6948796049280261, 0.5382640863006837], [-0.736217511483028, -0.905167852718025], [1.9800256547753576, 0.35385852380938326]], [[-0.23900976948836902, -0.3786967230715216, 0.14450077720852014, -0.9754686861086607], [1.7156256492917907, 0.8705429584991916, 0.08856604261582407, 2.363802232881997], [1.0955704056736741, 2.0411303072788347, 1.1389843248065004, 1.1931148314518516]], [[-0.08016268291563233, -1.8590176192309456, -1.7557437304169012], [-0.9027207561354215, -0.8149521340589797, -0.2815014030439662], [0.37068839330435377, 1.7065657494521562, -0.35010588284108274], [1.5801937287642172, 0.06400783886326106, 0.5380261143374967]], [[0.2630490176332077, 0.5335785839988516, -0.05436462669856712, 0.3383978506118127], [1.2977881592727216, -1.0305844723476538, 1.7055777653509334, -0.70064851873433]]], "biases": [[[0.5858277192409553], [2.767868131909062], [2.004430241439455], [-0.8984595249775718]], [[1.7517735481271084], [-0.7644777507281815]], [[0.3485381628158066], [2.3305396362260904], [-0.7944645257410511], [1.074708019972816]], [[-0.8990318418004865], [1.9490764133011251], [2.41928561063886]], [[0.39093215759396294], [-0.30455095605713345], [1.9589001334886302], [-0.6891458165769739]], [[1.4409741397441802], [-0.10035886746704625]]]}, "op": [[0.841811404341929], [0.7398084441857629]]}}