{"0": {"net": {"sizes": [4, 2, 2, 2], "weights": [[[-0.05996951386554399, -0.28486643298756226, -0.9519241877637528, -0.5535956406394243], [0.29057877616104, 1.528191444714352, 0.34642668753248274, -2.343880489430214]], [[-0.6973812739498115, 0.20143586793265028], [1.408867121021089, 0.6264746466948613]], [[-0.9464365964666882, 0.9270955311375234], [0.3687667150847816, -0.7485088958402082]]], "biases": [[[1.6336757755620948], [0.3979037102147115]], [[-1.2138022506193942], [-0.9301896555928283]], [[1.8821042198790316], [-1.590823787803277]]]}, "op": [[0.9038970151719646], [0.12522543162285768]]}, "1": {"net": {"sizes": [4, 2, 2, 2], "weights": [[[-1.090795253157449, -1.091937392659211, -0.3642801965043323, -2.1415207522647797], [1.6321467302316213, -0.532880564932537, 0.41736561387006826, -0.7216967178301932]], [[0.12834925638572578, 1.6662434838588314], [0.19565385866266277, 0.8151479427283836]], [[0.4058475849734636, 0.42498592714391353], [-1.4775209804528515, -0.04072190115849894]]], "biases": [[[-1.7800790938202424], [0.4741296877939138]], [[0.7943809617792567], [2.1163901593419903]], [[1.2813180247813651], [-0.9711670864384085]]]}, "op": [[0.8838920088975846], [0.09200552216300678]]}, "2": {"net": {"sizes": [4, 2, 2, 2], "weights": [[[0.59236400326801, 0.1428317492812469, 0.7317937663936158, -1.371182066524786], [-1.2188450712889558, 0.16805301410618684, 0.18095289743837842, 0.7077399738854082]], [[0.14541533582683192, -0.7029619299278071], [-0.692043396957168, 0.4030510228165928]], [[0.4948623441767727, -1.6528190976498909], [-0.20750158951559206, 0.059418928557790934]]], "biases": [[[0.5672033577799716], [-0.6253325958023407]], [[-0.008849314430776117], [-0.9836038259660033]], [[1.876459340072874], [-1.3571548925221069]]]}, "op": [[0.8588270853639233], [0.19024544634239324]]}, "3": {"net": {"sizes": [4, 2, 2, 2], "weights": [[[1.0519149936074839, 0.5051069345701529, 0.6379950877027439, -0.44578063309473676], [-2.362015198809804, 0.09698188779310919, -1.120221161284259, -0.467532512423128]], [[-1.9092355703281434, -0.9761277439664046], [0.429074138465216, 1.0984385335579128]], [[-0.002821898766210344, 2.018180911670255], [0.3473921564918761, -0.6317489146918889]]], "biases": [[[-0.3724082281039931], [-0.7026833346567383]], [[-0.11536918845841364], [2.030113504930768]], [[0.12993570887989847], [-1.5918576605580879]]]}, "op": [[0.8781678702566507], [0.10832910180110816]]}, "4": {"net": {"sizes": [5, 2, 4, 4], "weights": [[[-0.9713986637713673, 1.0955094349342698, 0.6015745893020195, -1.4465559104214853, 0.14791627900659132], [-1.5561386675920603, -1.2027523802132116, 1.0505215426815773, 0.5168504445173397, -0.6066178233656905]], [[0.5132468245489873, 0.08078451109626837], [0.03057812272099324, -0.45294006062629655], [-0.023996361454377117, 1.433143140859998], [2.258871637089806, 0.7472731120390161]], [[-0.2366177075926139, 1.6083004439858086, 1.4488464785229425, -2.30911674562469], [0.9969749020500558, 0.03810135121086841, -1.7696774743110346, 0.42074838672969833], [1.8530571125641482, -0.9176350587644957, -0.8710783652197611, 0.3980450905854196], [0.951811615219702, -0.9423217936720151, 0.9793892937601831, -0.18319656200130144]]], "biases": [[[-2.717002406596134], [-0.6300153803538959]], [[0.7374793490135694], [0.7557987632410602], [-0.8123975136905668], [-1.1953591560761392]], [[-0.2250664348965761], [1.1587072221876595], [-0.7302152154632376], [-0.6399912278903553]]]}, "op": []}}