{"0": {"net": {"sizes": [3, 2, 2, 2], "weights": [[[-0.03496028406284981, -0.7674387506327306, 0.8407477310773759], [-2.060675774411709, -1.33530848554064, 0.15337163459830278]], [[-0.01862406807339217, 0.7026549667870334], [0.24678264981639153, -0.38476392875013166]], [[1.1847322396165119, -0.44523348382716366], [-0.4267239397464582, -1.7343806677467735]]], "biases": [[[0.5302571704025902], [2.1111340146934108]], [[-0.0018692497435083529], [-1.2050296555529991]], [[1.6535091172743233], [-1.406569746388629]]]}, "op": [[0.9044523896721268], [0.11535996939705388]]}, "1": {"net": {"sizes": [3, 2, 2, 2], "weights": [[[0.9102809387522206, 1.195315837826898, 0.46832977407010284], [0.5972701174598763, 0.026914381573588036, -0.5508652201054479]], [[0.14801381258851612, 1.0218347744961533], [0.4800164565659089, -0.8911127926463975]], [[1.8669551957575912, -2.370294527386974], [-0.4425658717210327, -0.6484887380204217]]], "biases": [[[-1.1564398780824487], [0.07759918032659932]], [[1.252614920715465], [-2.305816301936191]], [[0.6172325005628774], [-1.6387707669396436]]]}, "op": [[0.8864237949556825], [0.11175104514737277]]}, "2": {"net": {"sizes": [3, 2, 2, 2], "weights": [[[-1.695011357468971, 0.3831381937287964, -0.31798748214190375], [0.09686865762877782, 2.2375646135531477, 0.7032485751946682]], [[2.664672308203283, -1.1227408600779387], [0.23544930593466376, -0.19984253387295453]], [[-0.47780609352645276, -2.519162140875559], [0.5781120726167328, 0.1227276364100532]]], "biases": [[[0.8683393992394907], [0.8366641396194776]], [[-0.10105437014684296], [-1.6734229113090158]], [[1.5954374986812152], [-2.3504848274596553]]]}, "op": [[0.736523554499303], [0.11052061086525677]]}, "3": {"net": {"sizes": [3, 2, 2, 2], "weights": [[[-0.5804800959165223, 0.6084102298823563, 1.3016671478867057], [1.206497401424133, 1.1305372972617365, -0.7196848168238593]], [[-0.11098882721283476, 0.7125798125443654], [-2.023899747753335, 0.7553100798909127]], [[-0.6912411388865343, -1.0653829808945483], [1.1120603953957082, 1.682607361896415]]], "biases": [[[0.7547282100657944], [-2.3038330972213017]], [[-1.4457645924283553], [-0.8353164366334372]], [[1.612416896931053], [-1.941766342761567]]]}, "op": [[0.8017979049153359], [0.16819037378217905]]}, "4": {"net": {"sizes": [3, 2, 2, 2], "weights": [[[0.2788665543634552, -0.13644391785387217, 1.8658997724543607], [0.0032480350967105886, 1.441067014454351, 0.7204588282326754]], [[0.6376888222138871, 0.0724471130186136], [0.18690456750517456, 0.8352212137088793]], [[-0.4886681293390936, 0.9698130757911209], [1.1810472864314867, -0.3406671790497639]]], "biases": [[[0.8469880653914105], [0.9215841685692164]], [[-2.2703589377669626], [0.1846053208884936]], [[1.4563640203243902], [-1.6615128726567805]]]}, "op": [[0.8918616312768848], [0.15071187589337692]]}, "5": {"net": {"sizes": [6, 4, 4, 3], "weights": [[[1.1894024363255407, -0.6539100157215492, -2.4468959221222506, 0.32405473578262806, -1.0847570517242817, -2.1244817913362866], [-0.7308423221954917, -0.8271085667651743, 0.24252636575212105, 0.6734122232411481, 1.6713062805765113, -1.2439552464556474], [1.12509394219102, 1.134074430835614, -0.3599970383608422, 1.6134951825102282, -0.8232270840406632, 0.6084737178483661], [0.1538864463843026, 0.8119261300567391, 0.5149104738321374, -0.2889297307857094, 1.5404243360438943, -0.7733245873507335]], [[-0.34063926149095924, 0.10130420597919228, 2.2116734850851296, -0.41348592711721993], [-0.41341036919377744, 0.6519525616801302, 0.3029635445240263, -1.6609057522509223], [1.8623660474926338, -0.947450446559203, -1.0595266395888907, 1.03168695250681], [-1.3560662263757368, -0.30241970571863264, -1.2351764048203748, 0.3138008104908486]], [[1.5464023684838215, -0.7487687651115547, 0.0725240265901081, 1.4786951747030106], [-0.8851496686684566, -0.3043490016013739, 0.87407637112625, -1.4031779914269742], [-0.18281105286445684, -0.024909036011165696, 2.2440761241597014, -1.1457500642419876]]], "biases": [[[-0.3929768359595475], [1.0134534442070864], [-0.6598141176038513], [-0.3491412205214064]], [[0.044160426358561426], [-0.7008729203375551], [0.4170922546029425], [0.1784347873558495]], [[0.5996006914215294], [-1.4992329517362226], [-0.7291773345528648]]]}, "op": []}}