{"0": {"net": {"sizes": [2, 2, 3, 3, 2, 4, 2], "weights": [[[0.008633705464960468, -0.8448490847259252], [-0.4425107598019801, 0.32352095332704156]], [[0.7693068157942132, -0.2511281224181352], [-0.6158514438037936, 1.6322910848830845], [0.12423838519425552, -0.7932513996355282]], [[-0.07563836425594565, 0.4918615348680946, 0.3752131904011665], [0.03978350027347497, 0.09413844000450346, 2.005729498089099], [1.295240411101515, -1.229188386221395, 0.4524495378196003]], [[0.3120393097426457, 0.1764687066604806, -0.7894284102502589], [-0.423413775330592, 0.17938700368247507, 0.10730324291706533]], [[-0.26379153945215333, 0.2854297049591886], [0.18069915729789351, 0.7823635954592124], [-0.575136865413188, 1.265260696703747], [-1.5499596039632617, -3.309506852197555]], [[0.8632600447601546, 0.8822618683305895, -0.08614391717627452, -1.9206389252652096], [0.072430386648625, -0.1202893865969551, -0.5934809214464979, -0.002012370749836609]]], "biases": [[[-0.09659325122696205], [0.3714997329926231]], [[-0.11221766382884919], [-0.19038158506597808], [-0.5627377596975729]], [[0.014733210453299013], [0.1768276194751207], [3.0294766985828603]], [[1.293206448434997], [0.5680983288004932]], [[-0.20741474906928492], [0.20054975689105295], [0.3493223875136095], [-0.5500896564157468]], [[0.8280550275167187], [-1.31971262524708]]]}, "op": [[0.8485697244363043], [0.1451055028735163]]}, "1": {"net": {"sizes": [2, 5, 2, 3, 5, 3, 2], "weights": [[[-0.024165168355421544, -1.73482152462201], [1.1909661764782131, -0.15340511232978965], [-0.3341099781251109, 0.2919056628184583], [0.14821510302928503, -0.8108528669734282], [0.7117477057138291, 0.5821745067689417]], [[-1.58923380405739, -0.4330161151386382, -0.47229185303279697, -1.0869790178773153, -0.7553581322970324], [1.6244658803235539, -0.045333078320061365, 1.0321999440984728, 2.0838039820226775, -0.13003736319754858]], [[-1.1056942792914697, -1.384417304087913], [-0.8477764654512874, -2.312034444614036], [-0.9276505558034169, -0.7477636503868221]], [[0.674548494111836, 0.06534984016698982, 0.5062542277915264], [-0.3399448652936163, -0.15754329314455917, 1.9158189438943822], [0.7235424105280653, 1.6760893942347967, -0.1709621215771563], [-0.14893514837521094, -0.4980785891917468, 0.7118286103508084], [-1.0594431229724175, 0.17437432061309147, -0.0885478992990178]], [[-0.7067895181220818, -0.659768092091073, 0.7311167436999162, -1.1691638889946545, -0.8078501303528196], [-0.6295435242451481, 1.4537103683961334, -0.2607708563393547, 0.5612069743819267, 0.07237807774165099], [0.9403669519709763, -0.8751898477186592, -0.2608979996728559, 1.3440870472569617, 1.0345244044295119]], [[1.2670665344028682, 0.6884042055377336, 1.4264287619364733], [2.5744501067596888, -3.594964886863521, 0.0019921346452693835]]], "biases": [[[1.0960143780328717], [-0.39206613815647756], [0.8718883607924669], [-1.5965749923066175], [-0.19790874954325177]], [[-0.2933009194180634], [0.3485021668650292]], [[-0.17895528595674], [0.8247415455089351], [-0.1615621717132659]], [[-0.056107711078642125], [1.290739985291439], [0.19959332284946776], [1.2022314681250126], [-0.2872027872257501]], [[-0.5519471806211053], [1.8297368826146454], [-0.35474036491004257]], [[0.43707536371566746], [1.0588406955656737]]]}, "op": [[0.8972734214578014], [0.10692047344030996]]}, "2": {"net": {"sizes": [2, 2, 4, 4, 2, 2, 2], "weights": [[[-0.3432337600710264, 2.5395039935208716], [-0.563684390817156, -1.3802280153212627]], [[0.9546836331244197, 0.17337501915126555], [-0.550224659407778, -0.456645158256396], [-0.995745091055027, 1.0547109470507787], [0.18859843694352477, 2.008601352262044]], [[-0.44103044331490404, -0.4744159891080216, -0.013092357125904994, -0.4538251103475772], [0.797632056274589, -1.9538276397495344, -0.895988714669966, 0.2019432140481431], [-1.4800000228003365, -0.08850324359477818, 0.7354499214034536, 1.7919735329615383], [-0.9681253847531852, 0.008742842593878525, -1.5767366109330223, -0.5943171654763764]], [[0.6746341298037506, 1.4466972759414636, -0.03923606965220748, 1.0256754480991528], [-0.8276836803228347, 0.917284733361849, 0.26537315209324447, -1.760820573065403]], [[0.7373268444869645, 1.3500699792355888], [-2.633510910940427, 0.8724710919593212]], [[1.0204404427584342, -0.5401721910662634], [-1.0112563148896794, -2.6561618811111076]]], "biases": [[[-1.0679383562706901], [0.13033407501921745]], [[-0.06873558623274476], [0.8760406472554284], [0.023683959056649776], [-0.04285443899719813]], [[0.5465057467657964], [-0.07841027125064408], [-1.5737621147164376], [-3.1956503930287568]], [[2.061701576388886], [0.3485196718523705]], [[-0.21664998034256214], [-0.09167371982982113]], [[0.7579014049427063], [-0.9395416221525595]]]}, "op": [[0.8162087577127455], [0.1165977768264159]]}, "3": {"net": {"sizes": [2, 5, 5, 5, 4, 5, 2], "weights": [[[2.0815742311570116, 0.4818187476802846], [2.0156614159995976, -0.754734734733932], [-0.7576441375277153, 0.16130197741017638], [-1.430453286335929, 0.18685880570035146], [-1.0256934307745318, 1.2360549866197321]], [[-0.6527218056635817, 0.5070352650458648, -1.7943528583570307, -0.8339194287071711, 1.6302421024279268], [-1.7557257444700143, -0.9044335675648043, 0.1582987555092968, -0.20868487417269402, -0.943300348090081], [-1.0174546266463633, 0.24926037919666688, -0.9376817154675463, 0.14515097196135623, 1.2763879479292797], [-0.46297341236015005, 0.5638776039963411, 0.42189862848300724, 0.8308055966460193, -0.12825736595527829], [-1.4493752506532496, 0.7856692031219557, 0.2981722337549032, 0.7463792594450119, 0.938050956240287]], [[1.0146848972084688, -1.3655961933870369, 2.2448740657730557, -0.12044512172280439, -0.394848404802867], [1.910659462714229, -1.1596853163199232, -1.3665073268480525, 1.9746257140305132, -0.9369751765024046], [-1.4173453194241596, -0.7795755857230661, -1.512471047336058, -1.742357271527548, -1.3271521050769444], [-0.5028698216045336, -1.1343200623243022, -0.9823857257783912, 0.8226730458228853, 1.537327384750652], [1.6887844352246728, -0.2914202197807523, -0.6174260386457787, 0.14285911278987729, -1.9652194970842118]], [[-0.9041581786503062, -0.5430294506021511, -0.49928914886174, 0.5404277078979569, -0.4861285340697964], [-0.5852132002227814, -1.6314324066007462, 1.0475472880577117, 0.07760036349876918, 1.5585159474116594], [-0.7164189553227138, 0.13483382526874418, -0.29027960069765335, -0.9468835006746021, 0.8464704255107148], [1.2744995253233964, -1.7685315322978044, 0.4864451747865969, -0.8581988914874817, -0.10408293870129016]], [[-1.8734468060336178, -1.345136230036579, -0.40990903072491747, 0.20969574666185636], [-0.026526256982085904, 0.3520736709790506, -0.16256776228905176, 1.3518107068135257], [-0.9566123936994974, -1.3630055947772457, 0.34641040585853616, 0.27031110136425296], [0.45361402248764826, 0.5640346134712034, -0.7384249657350272, -1.1942711871501372], [0.6507364743207076, -0.6160687060506673, -1.7360449152354165, 0.7564703886442289]], [[1.3623965298892233, 1.135997924403533, -0.8599266917732381, 0.7262947013902993, 1.0264393724761391], [-0.43919704656694153, 0.7231172060896267, 0.2216330601740306, -0.4702802603635019, -0.8780268716379779]]], "biases": [[[0.43542103762196593], [0.38206941271119893], [0.36460680669651013], [0.42758938451154654], [-1.540680628671638]], [[-1.1272379871975742], [-1.1563907798346593], [0.29752348479105306], [-0.4444182187259624], [-0.9196162400910697]], [[-0.16621394767702904], [-2.6595430866675036], [-1.8299636496544822], [-0.4130051261167939], [-1.3307569554423402]], [[-0.12923173264332002], [-0.5920815478693201], [-0.2554160193975414], [0.17411608348495775]], [[-0.17474177843270347], [0.2535817569616784], [-0.6553588510257746], [0.9900120855427015], [1.0369271005972047]], [[-0.12063913624175182], [-1.657242677809082]]]}, "op": [[0.8852022352478183], [0.10892302654574065]]}, "4": {"net": {"sizes": [5, 2, 3, 4, 2, 3, 2], "weights": [[[0.11248958058629613, -1.0389799698943316, 0.7782138438927957, -0.5516039008112587, 0.43789729975990505], [2.5873379884977132, 2.774645277311969, -0.5178763337197476, -1.484374276214914, -1.0056376642957372]], [[-1.7141999917205666, 0.010929959896639621], [1.970587044077308, 0.7190519320285514], [1.542766236692746, -0.3217817374119422]], [[0.12200180547914728, -0.1895474153145055, 1.7789781187686742], [1.3224969808365037, 0.914748478267999, -0.1424229602180077], [0.5126023826276718, -1.1642572512461042, -1.3251695132407038], [0.745878367095288, 0.3731721174198822, 0.814476630695524]], [[0.8175061550666494, -0.8406412033917906, 0.0097380244423854, 1.9373527168159852], [0.3382575851690096, 0.2585757636691632, -1.447937607094109, 0.16030361048873054]], [[0.10982835762347438, -1.474891960141295], [1.1713186878170776, -2.5921061437758843], [0.5493658087447882, -0.8745945535306312]], [[-1.350832161176698, -0.3428242741897226, 0.5221019641224426], [2.0542957598586313, 0.04793649403457865, -0.8536722562033978]]], "biases": [[[0.2538702809996858], [1.6161204379838636]], [[0.6289908370775088], [0.6469834054289358], [-1.355235507887161]], [[1.076549484399389], [-0.9984435559071272], [-0.29012108865530817], [0.4728393583500071]], [[0.14015636283275565], [-0.01257690172269418]], [[-1.0358476987238778], [-0.3238118216086619], [0.14844213389903627]], [[-0.07960972094500376], [0.049340690686341136]]]}, "op": []}}